{"fc1.weight": [[-0.5709131956100464, -0.13112173974514008, -0.6229373216629028, -0.3628639280796051, -0.07846128195524216, -0.41947662830352783, -0.3817894756793976, 0.22366784512996674, 0.4826323688030243, 0.2595162093639374, -0.27717432379722595, 0.06595076620578766, -0.0680442824959755, 0.4661039113998413, 0.32690590620040894, -0.37837645411491394, 0.3013431429862976, 0.1929851621389389, 0.05383679270744324, -0.2212860882282257, 0.12893246114253998, 0.6362451314926147, -0.25284215807914734, -0.1411265879869461, 0.25667548179626465, 0.2185267060995102, 0.14144589006900787], [0.012455311603844166, -0.6123554706573486, 0.44719359278678894, 0.4882718026638031, -0.8163646459579468, -0.5572397112846375, -0.4441561698913574, -0.4571455419063568, 0.003723382716998458, -1.1388798952102661, -0.2488098442554474, 0.06597946584224701, 0.01389559917151928, 0.3846052587032318, -0.21714472770690918, -0.24119505286216736, 0.14933805167675018, -0.40699994564056396, -0.11405958980321884, 0.1914997547864914, -0.20124143362045288, -0.43604835867881775, -0.08947911858558655, 0.31166547536849976, 0.19859099388122559, -0.01784706488251686, -0.12164925038814545], [-0.2695021629333496, -0.0806056559085846, -0.11085715144872665, -0.04903321713209152, 0.20079243183135986, -0.14994223415851593, 0.10134337097406387, 0.05608484148979187, -0.255947470664978, 0.06917251646518707, 0.02190965972840786, -0.07249978184700012, 0.09173864871263504, 0.5576711297035217, 0.46978822350502014, -0.11111068725585938, 0.16071751713752747, -0.021293018013238907, 0.478098064661026, -0.09805652499198914, 0.20595890283584595, 0.4210564196109772, -0.12216110527515411, 0.42526376247406006, 0.0831405445933342, 0.2825457453727722, 0.5240868926048279], [-0.1800069957971573, -0.44249728322029114, -0.15292242169380188, -0.038552314043045044, 0.00443751597777009, -0.386954128742218, -0.45900246500968933, -0.22720715403556824, 0.055775027722120285, -0.14878705143928528, -0.23740407824516296, 0.09120773524045944, -0.22814778983592987, 0.08371278643608093, 0.21691583096981049, -0.02732905186712742, 0.278123140335083, 0.47916287183761597, 0.3257654309272766, 0.2703934907913208, 0.3643883168697357, 0.34567803144454956, 0.23781973123550415, 0.17780020833015442, 0.08860431611537933, 0.2220962792634964, -0.0513392873108387], [-0.036567531526088715, 0.19194108247756958, 0.06634151935577393, 0.4944431483745575, 0.2184620350599289, -0.27233096957206726, -0.2215653359889984, -0.03232031315565109, -0.09584254771471024, 0.10712261497974396, -0.005684871692210436, -0.7200536727905273, -0.09762736409902573, 0.3864011764526367, -0.042296309024095535, -0.2853325605392456, -0.09820133447647095, -0.12641681730747223, -0.07727474719285965, 0.06521930545568466, 0.09773341566324234, 0.0846506729722023, 0.11745436489582062, 0.061682019382715225, -0.20188209414482117, 0.2868635356426239, -0.3997304439544678], [0.18377000093460083, -0.144770547747612, -0.4131699204444885, 0.5160205364227295, 0.2039661556482315, 0.24511964619159698, 0.2908647954463959, -0.02861645072698593, 0.023149751126766205, -0.2938661277294159, 0.21095901727676392, -0.25270524621009827, -0.019973095506429672, -0.4971577525138855, 0.21847860515117645, -0.21334876120090485, 0.15074262022972107, -0.10978907346725464, -0.06020835041999817, 0.2437325268983841, -0.20103412866592407, 0.0729207769036293, -0.04416414722800255, -0.15828701853752136, 0.07717421650886536, 0.06232081353664398, 0.14120061695575714], [-0.12516450881958008, -0.5467520356178284, 0.02779223956167698, 0.42964810132980347, 0.0002568586787674576, 0.3995288014411926, -0.21010184288024902, -0.24262557923793793, -0.010169470682740211, -0.4643387198448181, -0.04799310117959976, -0.5706188082695007, -0.13332349061965942, 0.3747062087059021, -0.01202686782926321, 0.25444552302360535, 0.16230563819408417, -0.24406372010707855, 0.08072490990161896, 0.2900874614715576, 0.08346711844205856, 0.16655461490154266, 0.14911015331745148, 0.09948977828025818, 0.5142443180084229, -0.15613730251789093, -0.024547221139073372], [-0.0828845277428627, -0.3762403428554535, -0.032101694494485855, 0.06477554142475128, 0.1607181429862976, -0.06033837050199509, -0.08312208950519562, 0.12643271684646606, 0.17512622475624084, -0.0367889367043972, 0.17486940324306488, 0.0872374102473259, -0.2660663425922394, 0.27494171261787415, 0.042832743376493454, -0.31035253405570984, 0.10212637484073639, 0.12809054553508759, -0.28264492750167847, 0.12077289074659348, 0.23168249428272247, 0.018671851605176926, 0.17999966442584991, 0.2652875483036041, -0.07591914385557175, -0.19188745319843292, -0.019318735226988792], [0.42790162563323975, 0.3083997070789337, 0.4906773567199707, -0.008700598962605, 0.03139958530664444, -0.3995564579963684, -0.3167073428630829, 0.04363705962896347, -0.18049199879169464, 0.3131776750087738, -0.04641600698232651, 0.5757617354393005, -0.18373893201351166, -0.17366832494735718, -0.08934492617845535, -0.17575852572917938, 0.5147832036018372, 0.09825266152620316, -0.15117277204990387, -0.02759270742535591, -0.16039924323558807, 0.11557085067033768, -0.2994411587715149, 0.5671528577804565, -0.024906160309910774, 0.14090515673160553, -0.04008836671710014], [0.5651087760925293, -0.40361642837524414, 0.1979946345090866, 0.041486773639917374, 0.044694025069475174, 0.39224132895469666, 0.2658972144126892, 0.18413564562797546, -0.22171714901924133, 0.24236439168453217, 0.124197818338871, -0.039324723184108734, -0.1829892247915268, -0.278167724609375, 0.18302422761917114, 0.32296252250671387, -0.6810697317123413, 0.4113379120826721, 0.23609720170497894, -0.23114927113056183, -0.6594592332839966, 0.6680319309234619, 0.40984830260276794, -0.30864274501800537, 0.34334951639175415, -0.4362993836402893, -0.14347854256629944], [0.1835291087627411, -0.6795556545257568, -0.7191351056098938, 0.671042799949646, 0.8014517426490784, -0.8955079317092896, -0.6230161190032959, 0.09126098453998566, -0.1188511848449707, -0.49635928869247437, -0.1115148589015007, 0.2922896444797516, 0.03814883902668953, -0.4520561099052429, -0.24621383845806122, -0.044980935752391815, 0.20774245262145996, 0.016223279759287834, 0.4336438775062561, -0.20051637291908264, -0.3109816312789917, -0.01280563697218895, -0.18871447443962097, -0.38312017917633057, 0.12268470227718353, 0.23970547318458557, 0.28589650988578796], [-0.11025296151638031, -0.07972870767116547, 0.11581554263830185, 0.24617384374141693, 0.03182782232761383, -0.18340478837490082, -0.030786195769906044, 0.2028776854276657, 0.10741104930639267, 0.34847623109817505, 0.05639835074543953, -0.17872178554534912, -0.2395884245634079, -0.318929523229599, 0.478427529335022, 0.3235628604888916, 0.3252553343772888, 0.13932083547115326, 0.33939722180366516, -0.554225742816925, 0.006393447518348694, -0.13338670134544373, 0.0438617579638958, 0.5282108187675476, 0.07774171233177185, 0.19488300383090973, 0.20640864968299866], [-0.0803503543138504, 0.13297997415065765, -0.09860603511333466, 0.058926939964294434, 0.12938997149467468, -0.25447869300842285, 0.16269385814666748, 0.0371917188167572, 0.08007370680570602, -0.24695859849452972, -0.024478161707520485, 0.10304054617881775, 0.11725372821092606, 0.38474026322364807, 0.23047448694705963, 0.08301530033349991, 0.3270075023174286, 0.40618446469306946, 0.030223777517676353, 0.528231680393219, 0.41542503237724304, 0.2925316095352173, 0.16606591641902924, 0.20104748010635376, 0.4682624936103821, 0.09124428033828735, 0.4290344715118408], [0.08816620707511902, -0.341938316822052, 0.24436558783054352, -0.3664763569831848, -0.274390310049057, -0.6190711259841919, -0.09843926131725311, 0.11197657138109207, 0.07748982310295105, -0.2109338641166687, -0.08864642679691315, -0.031886376440525055, -0.09418399631977081, 0.41680702567100525, 0.3376140892505646, -0.07023069262504578, 0.2467561513185501, -0.13311415910720825, 0.06494830548763275, 0.03708034008741379, 0.22831186652183533, 0.2400730550289154, -0.07239651679992676, 0.49411800503730774, 0.30837365984916687, 0.04385251924395561, 0.0662464052438736], [-0.20334820449352264, -0.14752307534217834, 0.14542952179908752, -0.173747718334198, 0.08713389933109283, -0.08486466109752655, -0.1525874137878418, -0.13659867644309998, -0.10771595686674118, 0.057384129613637924, -0.21482037007808685, 0.12011633813381195, -0.2259492725133896, -0.5690475702285767, 0.4529249370098114, 0.016635127365589142, 0.1487646847963333, -0.21284407377243042, 0.4729934334754944, -0.5143053531646729, 0.47651588916778564, 0.16120964288711548, -0.36218664050102234, -0.08927412331104279, 0.5106456875801086, 0.2135521024465561, 0.2625217139720917], [0.036003753542900085, -0.9143131375312805, -0.861214816570282, -0.5963047742843628, -0.4530582129955292, 0.5576907396316528, -0.13640767335891724, -0.21117331087589264, -0.15469376742839813, 0.6407365798950195, -0.008133549243211746, -0.0014634673716500401, 0.20783863961696625, -0.769412100315094, -0.12915776669979095, 0.19975873827934265, -0.31432783603668213, -0.5595338344573975, 0.501183271408081, -0.4685713052749634, -0.18240314722061157, -0.13576793670654297, -0.21737195551395416, 0.19215671718120575, -0.2851405739784241, 0.13346680998802185, -0.5604028701782227], [-0.1799890249967575, -0.6367166638374329, -1.0127021074295044, -0.4234426021575928, -0.0995463877916336, -0.19350281357765198, -0.04572677239775658, -0.15329381823539734, 0.1594957560300827, 0.2689291536808014, -0.12171055376529694, -0.4313952326774597, -0.2391190081834793, -0.6180375218391418, 0.7250736355781555, 0.13631491363048553, 0.1668848991394043, 0.12386063486337662, 0.03417281061410904, -0.3409556448459625, 0.46178585290908813, -0.0462634414434433, 0.33052530884742737, -0.3825657367706299, 0.29037296772003174, -0.5360727310180664, 0.12457546591758728], [0.2504512667655945, 0.33380258083343506, 0.04068375378847122, 0.524576723575592, -0.3120172917842865, -0.21439290046691895, -0.3835733234882355, -1.0011483430862427, -0.31389158964157104, -0.2012626826763153, -0.166770339012146, -0.4058261811733246, -0.28896355628967285, -0.5832139253616333, 0.06674032658338547, 0.24437859654426575, 0.03881322965025902, 1.0863457918167114, -0.24600155651569366, -0.20657792687416077, -0.11637986451387405, 0.0017682146281003952, 0.46111157536506653, 0.025625772774219513, 0.19839195907115936, 0.2241576611995697, 0.32150179147720337], [0.11777254194021225, 0.0037745339795947075, -0.030798012390732765, 0.2354118376970291, 0.11254503577947617, -1.0084888935089111, -0.8624171018600464, -0.20533739030361176, -0.12689219415187836, -0.32859528064727783, -0.07899212092161179, -0.04814297333359718, 0.20800094306468964, 0.5845863819122314, 0.010964126326143742, 0.06810744106769562, 0.4280414283275604, -0.0006450351793318987, 0.4829297959804535, 0.05634670704603195, 0.5436818599700928, 0.13767023384571075, -0.03812473267316818, 0.34333547949790955, -0.06893646717071533, 0.24560602009296417, 0.16414518654346466], [0.395017147064209, -0.24227504432201385, 0.06917054206132889, -0.45363304018974304, 0.03053230606019497, -0.24572579562664032, -0.4605529010295868, -0.2650983929634094, 0.07209835946559906, 0.29172298312187195, -0.040623199194669724, -0.1485716700553894, -0.16255785524845123, 0.3214319050312042, 0.41897231340408325, -0.26019060611724854, 0.2526718080043793, -0.12647800147533417, 0.11808274686336517, -0.003869395237416029, -0.20788978040218353, 0.1918584704399109, 0.4431838095188141, 0.0799269825220108, -0.11879459023475647, -0.10254814475774765, 0.5093705058097839], [-0.056110791862010956, -0.1961216777563095, 0.11094798892736435, -0.32975083589553833, 0.03182585537433624, -0.23100978136062622, -0.19005411863327026, 0.5708624720573425, 0.2839634120464325, 0.12048371881246567, -0.026759358122944832, 0.2513777017593384, -0.03575426712632179, 0.34671661257743835, 0.2637300193309784, 0.2763131260871887, -0.4869703948497772, -0.31895768642425537, -0.07767743617296219, -0.7083730697631836, -0.1285962164402008, -0.08050645142793655, 0.1497282236814499, -0.0503714419901371, -0.2363012284040451, 0.29521042108535767, 0.11051853001117706], [0.15504364669322968, 0.12864194810390472, 0.10315189510583878, 0.11135882139205933, 0.4294707477092743, -0.07656493037939072, -0.049801554530858994, -0.23297251760959625, 0.3400306701660156, -0.07462644577026367, 0.14703869819641113, -0.23125280439853668, 0.2035437375307083, 0.446068674325943, -0.1012587770819664, -0.11057955771684647, 0.026111165061593056, 0.2413124442100525, 0.2633025050163269, -0.21107983589172363, -0.18013796210289001, -0.09137975424528122, 0.16404297947883606, 0.31802478432655334, 0.09065595269203186, 0.2396107017993927, 0.062498413026332855], [0.6115975975990295, -0.14380872249603271, 0.013948028907179832, 0.08152766525745392, -0.16928312182426453, 0.05332929268479347, -0.15233898162841797, 0.4581049978733063, -0.4963957965373993, 0.15593108534812927, -0.1269667148590088, 0.1740485429763794, -0.10196463018655777, -0.05932636559009552, -0.1541266143321991, -0.36744585633277893, 0.4138379395008087, 0.011528506875038147, 0.1353508085012436, 0.3994525372982025, -0.11973553150892258, 0.28888654708862305, 0.23840537667274475, -0.1287323236465454, -0.07394175976514816, 0.24602384865283966, 0.14360183477401733], [0.26157069206237793, -0.29887306690216064, 0.1989341825246811, -0.15994098782539368, -0.04569900408387184, -0.2212553322315216, -0.0427631251513958, -0.5834523439407349, -0.027122508734464645, -0.32040315866470337, -0.28938472270965576, 0.20835831761360168, -0.24814677238464355, 0.008826447650790215, -0.07514751702547073, 0.13586455583572388, 0.004957683850079775, 0.0580359548330307, -0.2576681077480316, 0.26715153455734253, 0.021764088422060013, 0.07765313982963562, 0.10418378561735153, -0.1690075546503067, -0.1545070856809616, -0.23099306225776672, 0.026066429913043976], [0.07809009402990341, -0.35231921076774597, -0.011646497994661331, -0.22909800708293915, 0.45165157318115234, -0.019970877096056938, 0.044000331312417984, -0.42635735869407654, 0.0003827566106338054, 0.05896436423063278, -0.11847531050443649, -0.5494105815887451, -0.4490928053855896, -0.038072939962148666, -0.28114789724349976, 0.12429573386907578, 0.10698477178812027, 0.6060529947280884, 0.2676820456981659, -0.15473689138889313, 0.1736343801021576, 0.27507802844047546, -0.05283448472619057, 0.10335475951433182, -0.030734974890947342, 0.17561647295951843, 0.4550851285457611], [-0.24990105628967285, 0.31284114718437195, -0.14973783493041992, 0.34700438380241394, 0.15582765638828278, -0.16537758708000183, 0.0978563129901886, -0.297684907913208, -0.044849127531051636, 0.11100316792726517, 0.04831419140100479, -0.2083917260169983, 0.36816486716270447, 0.16066773235797882, 0.25003671646118164, -0.6029253602027893, -0.1304236352443695, 0.18910227715969086, 0.07878116518259048, -0.6004521250724792, -0.2631742060184479, 0.08953952044248581, -0.1078600063920021, 0.22523164749145508, 0.15314744412899017, 0.17175942659378052, -0.584830641746521], [0.31567662954330444, 0.3025926947593689, -0.03940654173493385, -0.19971129298210144, -0.17127233743667603, 0.28592202067375183, 0.2967163324356079, 0.05830586701631546, 0.015181762166321278, 0.13583295047283173, 0.27327027916908264, -0.018421882763504982, 0.1635449379682541, 0.24595026671886444, -0.35449492931365967, 0.006650102790445089, 0.04007318243384361, -0.07369454950094223, -0.20716166496276855, -0.22644929587841034, 0.3854455053806305, -0.20797979831695557, -0.18418952822685242, -0.364128977060318, -0.409376859664917, -0.3655424416065216, -0.11716235429048538], [-0.20388074219226837, 0.0010475518647581339, 0.40394628047943115, -0.2343427836894989, -0.1869499683380127, -0.30849704146385193, 0.04936172440648079, -0.15302011370658875, -0.07462906092405319, -0.22016678750514984, 0.06653385609388351, -0.028498632833361626, -0.10005294531583786, 0.0904274508357048, -0.08483874797821045, 0.30493438243865967, 0.05721959471702576, -0.4491215646266937, 0.035116150975227356, 0.3560473620891571, 0.3563092350959778, 0.10406399518251419, -0.29843252897262573, -0.03792291134595871, -0.10803738236427307, 0.019706765189766884, 0.3382911682128906], [0.5394405722618103, 0.09703751653432846, 0.37252798676490784, -0.35414156317710876, -0.06256341189146042, 0.2659089267253876, -0.050080012530088425, 0.4803113639354706, 0.06088728457689285, -0.32103192806243896, 0.09619973599910736, -0.08967914432287216, -0.36575719714164734, -0.12331495434045792, -0.11405587941408157, -0.5505533218383789, -0.08734511584043503, 0.16213013231754303, -0.2674803137779236, 0.48685818910598755, -0.1548599749803543, -0.3569822907447815, 0.10683275759220123, -0.6030875444412231, 0.06310553848743439, -0.12355116754770279, 0.18218101561069489], [0.01651572249829769, 0.09549747407436371, 0.272400826215744, -0.021788420155644417, -0.3565452992916107, 0.08673688769340515, -0.2627076804637909, -0.036764197051525116, 0.06480809301137924, 0.2523168623447418, 0.07120595872402191, 0.16471897065639496, 0.026927780359983444, -1.0477148294448853, -0.5022796988487244, -0.26811128854751587, -0.26772940158843994, -0.24986974895000458, -0.5686709880828857, -0.46529528498649597, -1.3388699293136597, -0.6424086093902588, -0.06531648337841034, -0.32432034611701965, -0.5368534326553345, -0.5030410885810852, -0.4329183101654053], [-0.1416524201631546, -0.25562840700149536, 0.4200924038887024, -0.12066405266523361, -0.4636140465736389, -0.4015328586101532, 0.2857654094696045, 0.21479159593582153, 0.01516519021242857, 0.1132972240447998, -0.045059774070978165, 0.14185307919979095, -0.03341897204518318, -0.74322509765625, 0.19951558113098145, 0.44126325845718384, -0.3391631841659546, 0.5127860903739929, 0.08661526441574097, -0.3574513792991638, -0.09009715169668198, 0.07248499244451523, 0.021418429911136627, 0.28557005524635315, 0.25819820165634155, 0.23515242338180542, -0.3711390197277069], [-0.8086377382278442, -0.21914701163768768, -0.20821784436702728, -0.14328905940055847, -0.26242855191230774, 0.03622756898403168, 0.1687650978565216, 0.2418527901172638, 0.01899120770394802, -0.4130331873893738, -0.18071722984313965, 0.35510072112083435, 0.365250825881958, 0.33327600359916687, 0.401351660490036, -0.05815152823925018, 0.7513813972473145, 0.6777042746543884, 0.33409014344215393, 0.5558439493179321, 0.6274304389953613, 0.3637218475341797, 0.24668848514556885, 0.5155750513076782, 0.45300427079200745, 0.49981144070625305, 0.03875831142067909], [0.058110013604164124, 0.1747436672449112, 0.006487607955932617, 0.05369557440280914, 0.09078527987003326, 0.07743896543979645, -0.07956119626760483, -0.15761710703372955, 0.12770594656467438, 0.07232825458049774, -0.18493247032165527, -0.0618666410446167, -0.09611396491527557, 0.05540060997009277, -0.15432332456111908, -0.06096780300140381, -0.13859373331069946, 0.07711072266101837, 0.11876074969768524, -0.0816500261425972, 0.06960485875606537, 0.11170674860477448, -0.06368854641914368, -0.015227511525154114, -0.16047756373882294, -0.055710673332214355, 0.010973632335662842], [-0.09918539971113205, 0.13966765999794006, 0.11476065218448639, -0.018395928665995598, -0.17981334030628204, 0.14138241112232208, -0.14539781212806702, 0.024926096200942993, -0.03623475134372711, -0.058912359178066254, 0.18715111911296844, 0.17160320281982422, 0.3106175661087036, -0.28671082854270935, -0.24348850548267365, 0.1466660052537918, -0.3713366687297821, -0.27394020557403564, -0.3527488112449646, -0.24582980573177338, -0.5318735241889954, -0.32774850726127625, -0.35876309871673584, -0.3084963262081146, -0.0223222803324461, -0.3507812023162842, -0.1694720983505249], [-0.08351652324199677, 0.4279846251010895, -0.6702969074249268, 0.3921104371547699, 0.09276625514030457, -0.022690989077091217, 0.031163400039076805, -0.13886424899101257, 0.15124361217021942, -0.8166027069091797, -0.15216781198978424, 0.4327998757362366, 0.16782540082931519, 0.3994889557361603, -0.15339094400405884, -0.21260061860084534, 0.7998387217521667, 0.25607946515083313, -0.10248972475528717, 0.05907764285802841, 0.21985092759132385, -0.05585208907723427, 0.5672417283058167, 0.13883055746555328, -0.08253180235624313, 0.08960211277008057, 0.14935819804668427], [0.48414725065231323, 0.19234681129455566, 0.2791807949542999, 0.2732454538345337, -0.30998289585113525, 0.4720318913459778, 0.0039098551496863365, -0.1367008537054062, -0.338005393743515, -0.18273980915546417, 0.13565993309020996, -0.29977893829345703, 0.39948520064353943, 0.6124321818351746, -0.17848308384418488, 0.24394720792770386, 0.5661875605583191, 0.10370029509067535, -0.4065093398094177, 0.11700605601072311, 0.24546876549720764, -0.3236828148365021, 0.21268092095851898, 0.23157140612602234, -0.05586598813533783, 0.07200027257204056, 0.35838112235069275], [0.00021266937255859375, -0.1747029423713684, 0.02334962598979473, 0.13543319702148438, 0.12755191326141357, -0.1669553816318512, -0.03128984570503235, 0.007095545530319214, -0.13297590613365173, 0.08837933838367462, -0.16739045083522797, -0.11686903983354568, 0.07959235459566116, -0.06841465085744858, -0.011493940837681293, 0.060918405652046204, -0.1364969164133072, 0.06132306158542633, -0.06299325823783875, -0.042903825640678406, 0.1681346744298935, 0.16603949666023254, -0.1854081004858017, 0.11559392511844635, 0.1352517157793045, -0.025506600737571716, -0.09508752077817917], [0.13629849255084991, 0.11758166551589966, -0.05428727716207504, 0.1966596096754074, 0.17839476466178894, 0.0938318744301796, 0.23094885051250458, -0.07367142289876938, 0.16304655373096466, 0.14201891422271729, 0.2564329504966736, 0.04088544473052025, -0.004636051598936319, -0.7979265451431274, 0.14638656377792358, -0.028743736445903778, 0.1880129873752594, 0.13234888017177582, -0.22759898006916046, -0.10949641466140747, -0.3351972997188568, -0.03136661276221275, -0.11895470321178436, -0.2850683033466339, -0.1192702203989029, -0.16845208406448364, -0.2804386019706726], [-0.40772339701652527, -0.4666263163089752, -0.45834583044052124, -0.23733924329280853, -0.2058342844247818, 0.5666670203208923, 0.3346489369869232, 0.11859098821878433, 0.43824443221092224, 0.21810728311538696, 0.014240212738513947, 0.5473588109016418, 0.014874786138534546, 0.1731591522693634, -0.26664045453071594, 0.21855226159095764, 0.12978605926036835, 0.01852213777601719, 0.3835657238960266, -0.008736541494727135, -0.13652749359607697, 0.47872114181518555, 0.10549579560756683, -0.001929352292791009, 0.07922350615262985, 0.12822282314300537, -0.34715643525123596], [0.09463337063789368, 0.4419247806072235, 0.4340052604675293, -0.022714873775839806, -0.928829550743103, 0.31798529624938965, -0.03706560656428337, 0.018421534448862076, -0.2647901475429535, 0.0767948254942894, 0.1010843887925148, -0.6154139041900635, 0.2769005298614502, 0.5299668312072754, -0.5938974618911743, 0.31172478199005127, -0.2150295078754425, 0.046227265149354935, 0.22086505591869354, 0.14183996617794037, -0.19178248941898346, 0.4919438362121582, 0.46277904510498047, -0.5116695761680603, 0.07960144430398941, 0.40886834263801575, -0.1199600100517273], [-0.1297602355480194, -0.01706172339618206, -0.008538599126040936, 0.18213874101638794, -0.12307128310203552, 0.06427022069692612, 0.06640958040952682, -0.01841104030609131, 0.041469499468803406, 0.007109017577022314, 0.18425747752189636, -0.17229782044887543, 0.04515856131911278, 0.21425415575504303, 0.2716062068939209, -0.07415302097797394, 0.2792268395423889, -0.22369129955768585, -0.22728630900382996, -0.005659358575940132, -0.17291583120822906, 0.16030296683311462, 0.05716996267437935, 0.07665836811065674, 0.08605854958295822, -0.1224660575389862, 0.03276359289884567], [0.05327342450618744, -0.07875963300466537, -0.15679612755775452, 0.14920474588871002, 0.1462118774652481, -0.12256720662117004, -0.11375999450683594, 0.19094069302082062, 0.019354313611984253, -0.040614962577819824, -0.021343201398849487, 0.008261173963546753, -0.10871557146310806, -0.11561741679906845, -0.05146639049053192, -0.142386794090271, 0.18744678795337677, 0.07207681238651276, -0.17739570140838623, 0.036900073289871216, 0.16988308727741241, 0.01146039366722107, -0.04553698003292084, -0.10358776897192001, 0.005545094609260559, -0.16171666979789734, -0.1235097274184227], [-0.3577865660190582, 0.06498880684375763, -0.31321775913238525, 0.20530299842357635, -0.1849145144224167, 0.15922003984451294, -0.10127705335617065, -0.08539755642414093, -0.0773879885673523, 0.44821202754974365, 0.18684348464012146, -0.1280093640089035, -0.16019025444984436, 0.7145794034004211, -0.38239359855651855, -0.24868051707744598, -0.26514822244644165, -0.39213597774505615, 0.36094725131988525, -0.4471491575241089, -0.022047143429517746, -0.09128233045339584, 0.435486763715744, 0.02264976315200329, -0.05552743747830391, -0.09412000328302383, -0.22727006673812866], [0.0030956114642322063, -0.08975350856781006, 0.1641417145729065, 0.08579546958208084, 0.021324215456843376, -0.0684235692024231, -0.030654506757855415, 0.09387052059173584, 0.09471487253904343, 0.13897225260734558, 0.16068783402442932, 0.024639032781124115, -0.02792974002659321, -0.35998958349227905, -0.40480077266693115, -0.26593416929244995, -0.2523994743824005, -0.06349144130945206, -0.39267322421073914, -0.7160560488700867, -0.3826606571674347, -0.5083258748054504, -0.3116952180862427, -0.3352511525154114, -0.16382426023483276, -0.4381754398345947, -0.7243193984031677], [0.4320366382598877, 0.09602352231740952, 0.3771721422672272, -0.3117903769016266, -0.17727476358413696, 0.10557187348604202, -0.18080191314220428, 0.2137354612350464, -0.19663819670677185, 0.15127351880073547, 0.19241982698440552, 0.04357120022177696, 0.2133469134569168, 0.21944141387939453, -0.2064765840768814, -0.5154178142547607, -0.02933334931731224, -0.3745077848434448, 0.21752884984016418, 0.4159976840019226, 0.10735119879245758, 0.17276930809020996, -0.33734720945358276, 0.20250444114208221, -0.28433915972709656, -0.09421870112419128, 0.21647953987121582], [-0.17491060495376587, 0.24647770822048187, 0.31684234738349915, 0.3734082281589508, -0.3634723126888275, 0.5167626738548279, 0.23894788324832916, 0.3687021732330322, -0.341727077960968, -0.39086440205574036, -0.06568794697523117, 0.2250910997390747, 0.3037012815475464, -0.2682085335254669, 0.07655851542949677, -0.21382810175418854, 0.1634839028120041, 0.4102463722229004, -0.0016882303170859814, 0.2550605237483978, 0.24816541373729706, -0.21026088297367096, -0.16311746835708618, 0.24441403150558472, 0.18735329806804657, -0.20644475519657135, 0.5821568965911865], [-0.4518357515335083, -0.40660640597343445, 0.10644766688346863, 0.2623251974582672, -0.0988948717713356, -0.19444742798805237, -0.034538403153419495, -0.8347368240356445, -0.656721293926239, -0.34794682264328003, -0.051193974912166595, 0.25248339772224426, 0.34155163168907166, -0.029453858733177185, 0.2790549695491791, -0.1437288224697113, 0.281220018863678, 0.23820793628692627, -0.04259435087442398, -0.9956424236297607, -0.20140919089317322, 0.03735435754060745, 0.35458898544311523, 0.0485251322388649, 0.25813987851142883, -0.0077296774834394455, 0.18076550960540771], [-1.0503859519958496, 0.16969142854213715, -0.5400896668434143, 0.11824513971805573, 0.12975181639194489, 0.023350251838564873, 0.07378988713026047, -0.19229120016098022, 0.13392148911952972, -0.3190767467021942, 0.009959351271390915, 0.09923630207777023, 0.1315683126449585, -0.07161130011081696, 0.34043699502944946, 0.29400017857551575, 0.47611117362976074, -0.01314202044159174, -0.14667542278766632, -0.24940823018550873, -0.0188205074518919, -0.08324506878852844, 0.1434856504201889, 0.022046132013201714, 0.4268103837966919, 0.3660728931427002, -0.1476309597492218], [0.3183344602584839, -0.5953325033187866, 0.12151803076267242, 0.2386019378900528, -0.6153485774993896, -0.001766981789842248, -0.14848046004772186, 0.06113835424184799, -0.39897456765174866, -0.5363037586212158, -0.18259665369987488, -0.9017994999885559, -0.16910423338413239, -0.4407894015312195, 0.37122642993927, 0.550264298915863, -0.1823197454214096, -0.1838558465242386, -0.04547886922955513, -0.021229317411780357, -0.30526846647262573, -0.23398858308792114, -0.09245289862155914, -0.03412613272666931, 0.17051179707050323, -0.4346543848514557, 0.3500429689884186], [0.003633413929492235, 0.12301820516586304, -0.07988835126161575, 0.3157583773136139, 0.03041648678481579, 0.1703042834997177, 0.09254429489374161, -0.024428823962807655, -0.10892995446920395, 0.20396894216537476, 0.2980959415435791, 0.01908835768699646, 0.2181570678949356, -0.0004427380335982889, -0.05990761145949364, 0.004870040342211723, -0.03649670258164406, 0.2256445288658142, -0.06442832201719284, -0.2950679659843445, 0.08125168085098267, -0.1034807413816452, 0.42397841811180115, -0.37992578744888306, 0.11680468916893005, 0.03817860782146454, -0.04832814633846283], [-0.4543047845363617, -0.05088571086525917, 0.083077572286129, -0.15375930070877075, -0.9084351062774658, 0.031007947400212288, 0.16758394241333008, 0.2025051862001419, 0.5627461671829224, 0.12279115617275238, 0.12012039870023727, 0.4810754060745239, -0.024297010153532028, -0.019925547763705254, 0.4503870904445648, -0.47335875034332275, -0.20439152419567108, -0.0037667497526854277, 0.08276960253715515, -0.32187923789024353, -0.4551468789577484, -0.6198264956474304, 0.3153837323188782, -0.1892171949148178, 0.12663614749908447, -0.40307778120040894, 0.2907995879650116], [-0.08228147029876709, 0.6266993284225464, 0.14066819846630096, 0.43518808484077454, -0.16194987297058105, -0.286587655544281, -0.09128158539533615, -0.49457696080207825, 0.1777031272649765, -0.045658499002456665, 0.1829020231962204, -0.2722807228565216, 0.13922865688800812, -0.07321248948574066, 0.4270886480808258, 0.1952262818813324, 0.26110410690307617, -0.22074991464614868, 0.13193729519844055, -0.5064527988433838, -0.1547447293996811, 0.5943306684494019, 0.07543200999498367, 0.24261708557605743, 0.41201746463775635, -0.20762766897678375, -0.6327192187309265], [0.08006797730922699, -0.13245689868927002, -0.16943374276161194, 0.1829862743616104, -0.1805625706911087, 0.1681184321641922, -0.024370059370994568, -0.047072917222976685, 0.02173939347267151, 0.18877409398555756, -0.12184607982635498, 0.12000586092472076, 0.00436381995677948, 0.16063691675662994, -0.18006964027881622, -0.12168575823307037, -0.18568375706672668, -0.15267011523246765, 0.055178627371788025, 0.01985393464565277, 0.008463650941848755, -0.025183260440826416, 0.013604581356048584, -0.1277087926864624, 0.008651942014694214, -0.04383416473865509, 0.1845925897359848], [0.02022072672843933, 0.17389942705631256, -0.1451854258775711, -0.1660144329071045, -0.16195228695869446, 0.10714642703533173, -0.09834418445825577, -0.04652322828769684, -0.10676643252372742, -0.14514856040477753, -0.16000789403915405, -0.13127513229846954, 0.11333943903446198, 0.17510239779949188, -0.16110913455486298, 0.15085788071155548, -0.049725934863090515, 0.06119726598262787, 0.14651139080524445, 0.04715906083583832, 0.125455841422081, -0.052909135818481445, -0.007354512810707092, 0.09578107297420502, 0.17554406821727753, 0.15477146208286285, -0.05583199858665466], [0.05545710399746895, -0.3367904722690582, -0.7600858807563782, 0.1927596628665924, 0.13756611943244934, 0.08099859952926636, -0.8557066321372986, 0.3320205807685852, 0.42088377475738525, -0.2457856833934784, -0.17749251425266266, 0.17350545525550842, 0.006308811251074076, -0.1472921073436737, -0.4445429742336273, 0.5153872966766357, 0.07531037926673889, -0.41601109504699707, -0.3498202860355377, 0.40085816383361816, 0.6850885152816772, -0.11173348128795624, 0.16359660029411316, -0.44277045130729675, 0.14249244332313538, 0.21741126477718353, 0.20880071818828583], [-0.03979146480560303, -0.17249731719493866, -0.6196233034133911, -0.16221573948860168, -0.02770058438181877, 0.725696861743927, 0.33903899788856506, -0.16027073562145233, -0.226791113615036, -0.16931112110614777, 0.1622575968503952, 0.11080066114664078, 0.24849548935890198, 0.20352548360824585, 0.6968600153923035, 0.867266058921814, -0.09212622791528702, 0.26032835245132446, 0.2116885781288147, 0.5148321390151978, 0.3970141112804413, 0.3083154261112213, 0.45214951038360596, 0.030774971470236778, 0.3234986960887909, 0.348518967628479, 0.5760801434516907], [0.10802135616540909, 0.2049693763256073, -0.05645457282662392, -0.36326226592063904, 0.21143333613872528, 0.38338160514831543, 0.29322174191474915, -0.043215278536081314, 0.0963846817612648, 0.14541900157928467, 0.23348307609558105, -0.13991785049438477, -0.14981289207935333, 0.13325771689414978, 0.30632707476615906, 0.43029549717903137, -0.12286263704299927, 0.5371286869049072, 0.10398533195257187, -0.0591619573533535, 0.035521090030670166, 0.15755103528499603, 0.3087197244167328, 0.004296320024877787, 0.25118589401245117, 0.1783224642276764, 0.029446614906191826], [-0.4868994951248169, -1.7059696912765503, -0.5206686854362488, -0.42689597606658936, -0.22048336267471313, -0.10785724967718124, -0.23316508531570435, 0.4084359109401703, 0.3831983804702759, 0.11913175880908966, -0.09829393029212952, 0.1266014128923416, -0.1503811925649643, 0.5939236879348755, 0.2820739448070526, 0.01511533372104168, -0.43865156173706055, -0.5928279757499695, 0.3661975562572479, -0.35323119163513184, 0.15672487020492554, -0.414471298456192, 0.23744018375873566, -0.09651432931423187, -0.15389908850193024, 0.5822663307189941, 0.17906227707862854], [-0.03759463131427765, 0.005245208740234375, -0.00903119146823883, 0.037477850914001465, 0.16541795432567596, 0.06218002736568451, 0.005714327096939087, -0.006928041577339172, 0.024864181876182556, 0.12763987481594086, -0.1311943531036377, -0.019307047128677368, -0.10037948936223984, -0.17885863780975342, 0.06969578564167023, 0.13507647812366486, 0.15676088631153107, 0.04158470034599304, -0.11129455268383026, 0.0792231410741806, -0.07226743549108505, -0.12854543328285217, 0.09272639453411102, 0.08760534226894379, 0.16159136593341827, -0.027353301644325256, -0.11683160811662674], [-0.1773681789636612, 0.07579638063907623, -0.015253588557243347, -0.0888877660036087, 0.0836542397737503, -0.17921492457389832, 0.13786043226718903, 0.009672209620475769, 0.17294363677501678, 0.01006433367729187, -0.1626490354537964, -0.14856494963169098, -0.04290567338466644, 0.06030787527561188, -0.16189242899417877, -0.18933679163455963, 0.08067862689495087, 0.17144794762134552, -0.09334428608417511, 0.1132565587759018, 0.0008469223976135254, -0.04502539336681366, 0.013118714094161987, 0.05624297261238098, -0.0638047456741333, -0.15099255740642548, -0.10953658819198608], [-0.37318482995033264, 0.0013699879636988044, 0.14491407573223114, 0.15473777055740356, 0.005970489699393511, -0.04650973156094551, 0.004056081175804138, -0.03850633278489113, 0.06284221261739731, -0.09878677129745483, 0.11508306115865707, 0.021869385614991188, -0.13233651220798492, 0.6781724095344543, 0.24556955695152283, 0.14598830044269562, 0.5371432900428772, 0.2943407893180847, 0.4951542317867279, 0.17185164988040924, 0.5739797949790955, 0.39893630146980286, 0.4497859477996826, 0.4601876735687256, 0.6655687689781189, 0.14862847328186035, 0.24558785557746887], [-0.07177562266588211, -0.28222188353538513, -0.09800747781991959, 0.460889607667923, 0.034015584737062454, 0.1483716368675232, -0.3019282817840576, 0.15989072620868683, 0.2620934844017029, -0.22991222143173218, 0.1381722092628479, 0.2669559121131897, 0.05403056740760803, 0.4355321526527405, 0.04881100729107857, 0.1722579300403595, -0.2825300991535187, -0.2453731745481491, -0.5221431255340576, -0.46110254526138306, -0.29711589217185974, -0.46675580739974976, 0.14532910287380219, 0.21753846108913422, -0.8074983358383179, 0.18958823382854462, 0.24507026374340057], [0.024578290060162544, 0.2442111223936081, 0.09122221916913986, 0.12852974236011505, -0.09248250722885132, 0.08252520859241486, 0.213644877076149, -0.1592307984828949, 0.09230160713195801, -0.056799355894327164, 0.25702422857284546, -0.007492678239941597, 0.05808187648653984, 0.10005968064069748, -0.14379027485847473, 0.01139793824404478, -0.09941943734884262, -0.37079188227653503, -0.012648280709981918, -0.07390183210372925, -0.22928859293460846, -0.3941985070705414, 0.24178512394428253, -0.13615384697914124, 0.06536892801523209, 0.010050890035927296, -0.20703911781311035], [-0.003584357677027583, 0.16055157780647278, -0.018691686913371086, -0.34135085344314575, -0.1396031528711319, -0.3202055096626282, 0.14355112612247467, 0.18336181342601776, -0.032415274530649185, -0.5022271275520325, -0.058810584247112274, 0.0617193765938282, 0.18330836296081543, 0.1738109588623047, -0.3338244557380676, 0.20443890988826752, 0.29254162311553955, 0.4954427182674408, 0.5282030701637268, -0.22474069893360138, -0.21063224971294403, 0.1539846658706665, 0.6142831444740295, 0.4920809864997864, 0.22583653032779694, -0.7546752095222473, 0.1747472733259201], [-1.1263459920883179, -0.1080649271607399, -0.26936009526252747, 0.5255031585693359, 0.4123340845108032, 0.0025812769308686256, 0.12093955278396606, -1.1002607345581055, 0.16590853035449982, 0.23654797673225403, 0.04752851277589798, 0.04796120151877403, 0.19535696506500244, -0.12080460786819458, -0.055889155715703964, 0.5049726963043213, 0.03584004193544388, 0.07774218171834946, 0.33147183060646057, 0.21118852496147156, 0.07582999020814896, 0.1825849562883377, 0.22963279485702515, 0.03525165468454361, 0.03437735140323639, -0.1787342131137848, 0.4256645739078522], [0.016521411016583443, -0.15426410734653473, -0.08590174466371536, -0.1261879801750183, -0.4924520254135132, 0.03904004767537117, -0.2491481751203537, -0.16218362748622894, -0.20497868955135345, -0.36682945489883423, 0.08069169521331787, -0.5109864473342896, -0.29433053731918335, -0.1110093891620636, 0.055357642471790314, 0.15147459506988525, -0.30086198449134827, -0.23464809358119965, -0.34484589099884033, 0.25750482082366943, -0.332319438457489, -0.3077975809574127, -0.09357141703367233, -0.1374884992837906, -0.04605667665600777, 0.4096410870552063, -0.08944420516490936], [-0.565773069858551, -0.1912243664264679, 0.0806194618344307, -0.07779455184936523, 0.5361303687095642, 0.09599079191684723, 0.44616463780403137, -0.1630500853061676, 0.21473462879657745, 0.2232547253370285, 0.20735695958137512, -0.36254963278770447, -0.2797539234161377, -0.5136479139328003, 0.2299635261297226, 0.14052672684192657, 0.1357540786266327, -0.9535934329032898, -0.10250067710876465, 0.6964066624641418, -0.41843634843826294, -0.014727907255291939, 0.16567687690258026, 0.16393932700157166, -0.12186574190855026, 0.10857012867927551, 0.05602695420384407], [0.09789827466011047, -0.157435804605484, -0.08322528749704361, 0.023218918591737747, -0.08055949956178665, 0.07050071656703949, 0.2794319987297058, 0.21524332463741302, -0.2205679714679718, -0.5519888997077942, -0.0011813158635050058, -0.0157457385212183, 0.10670608282089233, -0.18967272341251373, 0.19976496696472168, -0.01627536304295063, 0.1929788887500763, 0.3545122742652893, -0.032785046845674515, 0.10549914091825485, -0.12405546754598618, 0.27188095450401306, -0.1138501837849617, -0.3463045358657837, 0.1910189837217331, 0.45570746064186096, -0.06798509508371353], [0.5327458381652832, 0.22558069229125977, -0.6608283519744873, -0.15624411404132843, 0.2858051061630249, -0.4059402346611023, -0.12057916074991226, -0.47259268164634705, -0.19123844802379608, 0.1685633361339569, 0.021420007571578026, -0.12594540417194366, -0.09521385282278061, 0.13854046165943146, 0.21585211157798767, 0.21946130692958832, -0.023023080080747604, 0.019897056743502617, -0.14080587029457092, -0.04856911301612854, -0.1487053781747818, 0.09962547570466995, 0.21014951169490814, 0.19317781925201416, 0.20956486463546753, -0.17836277186870575, 0.1301826387643814], [-0.006742395926266909, 0.04587579891085625, -0.1765710711479187, 0.2493235021829605, 0.07191401720046997, 0.22680172324180603, 0.22198958694934845, 0.04476891830563545, -0.020727001130580902, 0.05751647427678108, 0.038380831480026245, 0.3093291223049164, 0.16033795475959778, -0.7865005135536194, -0.5489388108253479, -0.5756701827049255, -0.6523677110671997, -0.48535245656967163, -0.7881225943565369, -0.4835040867328644, -0.9955442547798157, -0.5942055583000183, -0.6278910636901855, -0.8622680306434631, -0.653235912322998, -0.6576090455055237, -0.6503279805183411], [0.09557774662971497, -0.28534698486328125, -1.009385585784912, -0.8698958158493042, -0.8210324048995972, 0.2910466194152832, 0.5394358038902283, -0.19192656874656677, 0.009900175034999847, 0.5118805766105652, -0.055451713502407074, -0.07029823213815689, -0.061027735471725464, 0.021290402859449387, -0.28394418954849243, 0.2610935568809509, 0.26894357800483704, 0.0343693345785141, -0.2078769952058792, -0.19339457154273987, -0.6514773368835449, -0.3276773691177368, 0.3461235761642456, 0.18094807863235474, -0.06254813820123672, -0.2127392590045929, 0.5575340986251831], [-0.0720839872956276, 0.24642077088356018, -0.40834876894950867, 0.13155828416347504, 0.36735865473747253, -0.05401464179158211, 0.019694598391652107, -0.7998114824295044, -0.2410459667444229, -0.438167542219162, -0.04603425785899162, -0.31807732582092285, -0.005118343513458967, 0.2492697536945343, 0.19170841574668884, -0.4940911531448364, -0.3470061421394348, 0.046570852398872375, 0.3100062310695648, 0.08667726814746857, -0.027207650244235992, 0.2214416265487671, 0.07157658785581589, 0.18169380724430084, 0.08224885910749435, 0.08698185533285141, -0.09095645695924759], [0.17280888557434082, 0.5413927435874939, 0.36901745200157166, 0.6547796130180359, -0.22999289631843567, 0.06963994354009628, -0.18138620257377625, -0.0693303793668747, -0.42716553807258606, -0.4129452109336853, -0.1428939402103424, 0.4959985315799713, 0.2343873530626297, -0.12268984317779541, -0.11136167496442795, 0.37432578206062317, 0.2399151623249054, 0.5741399526596069, 0.3373686373233795, -0.11383012682199478, -0.335935115814209, 0.018897108733654022, 0.2401386946439743, 0.5591263771057129, 0.5128772854804993, -0.7146487832069397, -0.09391452372074127], [-0.09450702369213104, -0.16487447917461395, 0.1527763307094574, 0.0619102343916893, 0.07368335872888565, -0.31012818217277527, -0.0668947622179985, -0.09724783897399902, -0.16055171191692352, -0.45644378662109375, 0.05808710679411888, -0.09601002931594849, 0.1733405441045761, 0.45734506845474243, -0.1746201366186142, -0.0684254840016365, -0.07809532433748245, 0.07907935976982117, 0.11419430375099182, -0.2942536175251007, 0.006275982595980167, 0.09809332340955734, -0.13296964764595032, -0.00014161669241730124, 0.21782036125659943, -0.05109335854649544, 0.027023030444979668], [-0.05336039140820503, -0.4630304276943207, 0.20520558953285217, -0.23453596234321594, -0.23308905959129333, -0.45439353585243225, -0.4427590072154999, 0.0020828864071518183, -0.24207377433776855, 0.13794966042041779, -0.0029607058968394995, 0.12529140710830688, 0.02896096743643284, 0.2462233603000641, -0.005750440526753664, 0.21833093464374542, 0.17711612582206726, 0.17632456123828888, 0.258707731962204, 0.24678869545459747, 0.4915916621685028, 0.2341647446155548, 0.30703356862068176, 0.3127117156982422, 0.20300590991973877, 0.11738499999046326, 0.23546449840068817], [-0.014199630357325077, -0.05967769771814346, -0.7176676392555237, 0.10716035962104797, -0.03574276715517044, 0.43253692984580994, 0.2924261689186096, 0.1926441639661789, 0.26204395294189453, -0.8027387857437134, 0.09145433455705643, -0.019576717168092728, 0.28058603405952454, 0.5327594876289368, -0.19856327772140503, 0.32033973932266235, 0.33315959572792053, 0.37689557671546936, 0.2382044494152069, 0.051653940230607986, 0.3179190456867218, 0.13748322427272797, 0.42140159010887146, 0.05973236262798309, -0.020579269155859947, -0.09388174116611481, 0.2434229850769043], [-0.11123000085353851, -0.15140333771705627, -0.2717500627040863, -0.15820547938346863, 0.27728939056396484, 0.06821104884147644, 0.18378479778766632, 0.023607991635799408, -0.03434348106384277, 0.14264845848083496, 0.10742831230163574, -0.05924030765891075, 0.10910864919424057, 0.2735000550746918, 0.4312898516654968, -0.15990854799747467, -0.16340622305870056, 0.01467116642743349, 0.20982007682323456, 0.14700563251972198, 0.43149542808532715, -0.03438396751880646, 0.2776414752006531, 0.33180809020996094, 0.471942663192749, -0.08755005896091461, -0.06659462302923203], [-0.3258397579193115, -0.20910824835300446, 0.392157644033432, 0.549177885055542, 0.4001781642436981, 0.2717174291610718, 0.25563591718673706, 0.10018050670623779, 0.15792013704776764, -0.040435515344142914, 0.25144055485725403, -0.24830996990203857, -0.12877747416496277, -0.461471289396286, -0.34525275230407715, -0.5562286972999573, 0.0839947834610939, -0.3730219304561615, -0.46248677372932434, -0.1751726269721985, -0.5802578330039978, -0.35368481278419495, 0.01611686684191227, -0.08395444601774216, 0.4252288341522217, -0.15175582468509674, -0.4673522412776947], [-0.06955836713314056, -0.3654245138168335, -0.33681976795196533, -0.3692949712276459, -0.2139601707458496, -0.19184167683124542, -0.12346476316452026, -0.12418656051158905, -0.16297422349452972, 0.6258118748664856, -0.2248835414648056, -0.26767221093177795, -0.2238815724849701, 0.06883600354194641, -0.7907053232192993, 0.22897601127624512, -0.3860812783241272, -0.3541363775730133, -0.03952857106924057, 0.10653414577245712, 0.39271262288093567, -0.6163701415061951, -0.307198703289032, -0.1573648452758789, -0.30720043182373047, -0.19197319447994232, 0.21040573716163635], [-0.13911640644073486, 0.17620621621608734, 0.2906032204627991, -0.21338313817977905, -0.7050329446792603, -0.8925999402999878, -0.9527687430381775, -0.1083013266324997, -0.25308966636657715, -0.036495354026556015, -0.11613063514232635, -0.2087700217962265, -0.14001578092575073, -0.21490170061588287, 0.11022930592298508, 0.2191781997680664, -0.40631505846977234, -0.28812652826309204, -0.14660856127738953, -0.27143773436546326, 0.33123597502708435, -0.3053264021873474, -0.12462661415338516, -0.21791066229343414, -0.12394750863313675, -0.016625886783003807, -0.17350684106349945], [-2.169463872909546, -0.13285374641418457, 0.4010561406612396, 0.6085870265960693, -0.08488497883081436, 0.05294112116098404, -0.09869292378425598, 0.02178320661187172, 0.16532361507415771, -0.3505074381828308, -0.030033158138394356, -0.0461038313806057, 0.23758777976036072, -0.09251479059457779, -0.1867528259754181, -0.05799481272697449, 0.3142298758029938, -0.055856723338365555, -0.25731831789016724, 0.40613606572151184, 0.14969615638256073, 0.05058712512254715, -0.005720574874430895, 0.08477021008729935, 0.08680501580238342, 0.00883037131279707, 0.18481537699699402], [-0.25861573219299316, -0.09080266207456589, -0.5116060972213745, -0.10228347033262253, 0.33402785658836365, 0.022319220006465912, 0.07152801007032394, -0.059485435485839844, -0.00846113171428442, -0.4146103262901306, 0.0942705050110817, 0.13218973577022552, -0.12646664679050446, 0.48202547430992126, 0.0963907465338707, 0.08882564306259155, 0.18400707840919495, 0.26103606820106506, -0.035866327583789825, 0.10264886170625687, 0.2559014558792114, 0.4503100514411926, 0.16393020749092102, 0.09598424285650253, 0.08507058024406433, 0.043129973113536835, 0.15210822224617004], [-0.01932423561811447, 0.4747970998287201, 0.4605526626110077, 0.0203938540071249, -0.35367730259895325, 0.16368132829666138, -0.3199375867843628, -0.22425037622451782, -0.11103705316781998, 0.3701440691947937, 0.16660179197788239, -0.18504610657691956, -0.10717383772134781, -0.04117591306567192, -0.32736343145370483, 0.3446340262889862, -0.009355610236525536, -0.3903147578239441, 0.3519939184188843, 0.14746876060962677, -0.03458525612950325, -0.49626484513282776, 0.07512661069631577, -0.20076368749141693, -0.21240296959877014, 0.1861453354358673, -0.0036171707324683666], [-0.13253577053546906, 0.589226484298706, -0.3159234821796417, 0.2617253065109253, 0.24612577259540558, -0.010699412785470486, 0.5149698257446289, 0.2823370695114136, -0.01886758767068386, 0.13360880315303802, 0.33064237236976624, -0.2027893364429474, 0.06345880031585693, -0.5516883134841919, 0.2200644314289093, -0.1975807547569275, 0.08832601457834244, -0.05984339118003845, -0.4122793972492218, 0.14548130333423615, 0.10219363123178482, -0.1690501868724823, -0.07500442862510681, -0.04951310157775879, -0.04238409548997879, -0.27262163162231445, 0.03395817056298256], [-0.18053311109542847, -0.002238393761217594, -0.04871811717748642, -0.14241325855255127, 0.13454145193099976, 0.2228037416934967, 0.045702092349529266, 0.14319926500320435, -0.2541709542274475, 0.11271711438894272, 0.09071043133735657, 0.1479678750038147, 0.14363089203834534, -0.09486208856105804, 0.2924576997756958, -0.25966137647628784, 0.5468432307243347, 0.08143910020589828, 0.08255022764205933, -0.45069950819015503, 0.17793087661266327, 0.021787723526358604, 0.0822429433465004, 0.014206715859472752, 0.12348023802042007, -0.1480068862438202, -0.25853729248046875], [0.04050318896770477, 0.17296729981899261, 0.08518658578395844, 0.0793105736374855, -0.10640089958906174, -0.3324678838253021, -0.0567137636244297, 0.06741971522569656, 0.031296808272600174, 0.06999895721673965, 0.11816726624965668, -0.023173419758677483, 0.05000617727637291, 0.4795030355453491, 0.18161825835704803, 0.26480787992477417, 0.4959658980369568, 0.42152509093284607, -0.07177865505218506, 0.11026135087013245, 0.28678882122039795, 0.36193129420280457, 0.5402824878692627, 0.4658623933792114, 0.4087103307247162, -0.014046029187738895, 0.2832123339176178], [0.14890208840370178, -0.03302934765815735, 0.09817220270633698, -0.03810374438762665, -0.7447821497917175, 0.06724011898040771, 0.30752208828926086, 0.29827913641929626, -0.43278488516807556, -0.17498832941055298, -0.016163894906640053, 0.23727217316627502, 0.29369115829467773, -0.18611468374729156, -0.07739266753196716, 0.27120086550712585, -0.04117467626929283, 0.18582382798194885, -0.11378581076860428, -0.043456193059682846, 0.10556939244270325, 0.0024754053447395563, -0.21312963962554932, 0.1982450932264328, 0.280305415391922, -0.03909796476364136, -0.1635366678237915], [-0.04264518618583679, -0.06464841216802597, 0.187428280711174, -0.12059710174798965, 0.22146953642368317, -1.4270646572113037, -0.41818562150001526, -0.20781210064888, -0.010321849025785923, 0.04881279915571213, -0.031015492975711823, 0.050868090242147446, 0.09830234944820404, 0.011569677852094173, 0.41463205218315125, -0.07515261322259903, 0.2818320691585541, 0.5384458899497986, -0.023680150508880615, 0.4622132480144501, 0.8027864098548889, 0.5140230655670166, -0.02530299313366413, -0.10800056904554367, 0.45407718420028687, 0.1713743507862091, 0.5043080449104309], [0.2437649518251419, -0.27961933612823486, -0.14191091060638428, 0.021786369383335114, 0.03404998779296875, 0.041698846966028214, -0.05043598264455795, -0.10032132267951965, -0.3137568533420563, -0.11879733204841614, -0.10068241506814957, 0.06214090809226036, -0.06174255162477493, 0.28185415267944336, 0.07154068350791931, 0.24070504307746887, 0.12169627100229263, 0.1709090918302536, 0.5729802846908569, -0.06767667829990387, 0.43697354197502136, 0.009452213533222675, 0.04607561603188515, 0.25243207812309265, -0.01912221871316433, 0.283862441778183, 0.23950228095054626], [-0.3029685318470001, 0.1184937059879303, 0.030589476227760315, 0.057609304785728455, 0.060828909277915955, 0.10686099529266357, -0.08686724305152893, -0.15264561772346497, 0.25480225682258606, -0.0259986724704504, -0.2494276612997055, 0.20369862020015717, -0.09646270424127579, -0.9416415691375732, -0.2068166434764862, 0.514536440372467, -0.217463880777359, -0.05065946653485298, 0.3430412709712982, 0.5250670909881592, 0.132619708776474, 0.25289952754974365, -0.0170886293053627, -0.5266014933586121, -0.14996814727783203, -0.0040954905562102795, -0.043718308210372925], [0.7170101404190063, -0.00336736673489213, -0.6474701166152954, 0.09479525685310364, 0.2328117936849594, 0.17940549552440643, 0.06125709041953087, -0.23960824310779572, -0.005170547869056463, -0.7929921746253967, -0.13162633776664734, -0.061107344925403595, 0.2144503891468048, -0.0004983191611245275, 0.19145017862319946, 0.0018410149496048689, 0.17777833342552185, -0.18142348527908325, -0.23053069412708282, 0.11735834926366806, 0.05983263626694679, 0.12249147146940231, 0.174888476729393, 0.26230689883232117, -0.015380903147161007, -0.1538812518119812, -0.019780859351158142], [0.8076279163360596, 0.6796004176139832, -0.33107778429985046, 0.34672683477401733, 0.2734362483024597, 0.1729196310043335, -0.23479865491390228, -0.017623236402869225, -0.6362807750701904, -0.24592076241970062, 0.042614806443452835, -0.036481089890003204, -0.21694263815879822, 0.10983683913946152, 0.17914046347141266, 0.12677045166492462, 0.23963172733783722, 0.1959599107503891, -0.5474062561988831, 0.024373246356844902, 0.5301632881164551, -0.4413701891899109, 0.06543990224599838, 0.320174902677536, 0.1318977177143097, -0.047631822526454926, -0.20621591806411743], [-0.27832862734794617, -0.6507312059402466, -0.2353481650352478, 0.2726355195045471, -0.4479491114616394, 0.3303045630455017, -0.05696102976799011, -0.16008809208869934, -0.1811182051897049, -0.04541858658194542, -0.20546585321426392, -0.6428272724151611, -0.034081410616636276, 0.33992087841033936, -0.089968241751194, 0.0960017740726471, -0.3592683970928192, -0.4281018078327179, 0.09766178578138351, -0.17305240035057068, -0.21438190340995789, 0.08638323098421097, -0.3796021640300751, -0.25076067447662354, -0.40486007928848267, 0.4987807869911194, -0.09228340536355972], [-0.2580757439136505, -0.34347689151763916, -0.08765680342912674, -0.09973842650651932, 0.44090116024017334, 0.3702287971973419, -0.45686906576156616, -0.2277376502752304, 0.0014728748938068748, -0.17446695268154144, -0.11805730313062668, 0.16205374896526337, -0.3167731761932373, -0.2144814431667328, 0.3277474045753479, -0.3652087152004242, 0.047696102410554886, -0.057094756513834, 0.4832213521003723, -0.31356748938560486, -0.09791534394025803, -0.13487088680267334, 0.024550728499889374, -0.03103390894830227, 0.04969576373696327, -0.020741529762744904, -0.16677816212177277], [0.3475663363933563, -0.03360305353999138, -0.3391275703907013, 0.37560516595840454, 0.04241449013352394, -0.5894109010696411, 0.039679814130067825, -0.3513568639755249, -1.368368148803711, -0.7975448369979858, -0.2334255874156952, -0.21714763343334198, 0.08634345233440399, -0.2739804685115814, -0.2680036425590515, -0.0011642571771517396, -0.5386437177658081, 0.6732227206230164, -0.03585241734981537, 0.3759300410747528, -0.36275914311408997, 0.31838440895080566, 0.4380050003528595, -0.055931415408849716, -0.051943447440862656, -0.027528664097189903, -0.08109354227781296], [0.06389512866735458, -0.1651986986398697, 0.04105067625641823, -0.19102691113948822, 0.020560817793011665, -0.11456350982189178, -0.07953125983476639, -0.1464868038892746, -0.08241665363311768, -0.1313527673482895, -0.14606161415576935, -0.037324223667383194, -0.1695212870836258, -0.10266830027103424, 0.2932383120059967, 0.22311292588710785, 0.22101005911827087, -0.5761370658874512, 0.014224093407392502, -0.1616005301475525, -0.6539965867996216, -0.5433853268623352, 0.20060206949710846, 0.1674771010875702, 0.20554189383983612, 0.32413360476493835, 0.1508544534444809], [-0.7039440870285034, -0.7437272071838379, -0.14240305125713348, -0.08847356587648392, -0.39395901560783386, 0.4239734411239624, 0.34185752272605896, 0.09728361666202545, 0.08414246886968613, -0.11074575036764145, -0.045470867305994034, -0.22719910740852356, -0.09576501697301865, -0.3216216266155243, 0.13560850918293, 0.5770592093467712, -0.15130449831485748, 0.33767449855804443, -0.35838785767555237, -0.1520620584487915, 0.2681671380996704, -0.34732675552368164, 0.18604600429534912, 0.26961472630500793, -0.1582319438457489, -0.36076027154922485, 0.036094482988119125], [0.15102916955947876, -0.02461189776659012, -0.21750441193580627, -0.19527339935302734, -0.044149596244096756, 0.02616031840443611, -0.03659583628177643, 0.12560968101024628, -0.07217424362897873, 0.3424473702907562, 0.19262373447418213, -0.18784716725349426, 0.07401442527770996, -0.11077573895454407, 0.07049664855003357, 0.16400514543056488, 0.2047063261270523, -0.468851774930954, -0.15607093274593353, -0.06515108048915863, -0.2982424795627594, 0.264171838760376, -0.13774575293064117, 0.05589119344949722, -0.2873782515525818, -0.19919489324092865, 0.15124055743217468], [0.19448231160640717, 0.07022211700677872, 0.05460837855935097, 0.12237302213907242, 0.05162515118718147, -0.10950371623039246, 0.17900671064853668, -0.03828531503677368, 0.057429444044828415, 0.09158974885940552, 0.060961849987506866, 0.1479852944612503, 0.2023428976535797, 0.2709099352359772, 0.5490623712539673, -0.09601861238479614, -0.10282493382692337, -0.17684240639209747, 0.6335672736167908, -0.05771203711628914, 0.2557370960712433, 0.15844635665416718, -0.06141052395105362, -0.08210616558790207, 0.1702527105808258, 0.10603392869234085, -0.028351133689284325], [0.2076127529144287, 0.19944673776626587, 0.05532437935471535, 0.019900616258382797, 0.02294190786778927, -0.25037917494773865, -0.17383939027786255, -0.21879489719867706, -0.09380701184272766, -0.3917483985424042, 0.10531807690858841, -0.022137220948934555, -0.08056420087814331, 0.7732818126678467, -0.1916501224040985, 0.03427029773592949, -0.08323013037443161, 0.1679171770811081, -0.13770319521427155, -0.045621357858181, -0.09210280328989029, 0.2584114968776703, 0.12630534172058105, 0.0231159720569849, 0.11964711546897888, 0.10073535889387131, 0.082502581179142], [-0.11990485340356827, 0.009357720613479614, -0.17238225042819977, 0.0951867327094078, 0.09632398933172226, 0.023419778794050217, 0.014387515373528004, -0.01316384132951498, -0.036929257214069366, 0.14070864021778107, -0.005712292157113552, -0.1509777307510376, -0.10450417548418045, -0.14785054326057434, 0.00376950204372406, -0.1574449986219406, 0.04002027213573456, 0.0993601456284523, -0.10984425991773605, 0.029772773385047913, -0.018224328756332397, -0.070584237575531, -0.16028523445129395, 0.08978237211704254, -0.1860460340976715, -0.11710560321807861, 0.05408656224608421], [0.06370048224925995, 0.17554925382137299, 0.22674040496349335, 0.12743711471557617, -0.0986885130405426, 0.26702722907066345, 0.40819084644317627, -0.10761836916208267, 0.25571539998054504, 0.3906327486038208, 0.10728143155574799, -0.09347159415483475, -0.3358546495437622, -0.04352152720093727, 0.4203190803527832, -0.1382630616426468, -0.17675341665744781, -0.41071003675460815, -0.1240554079413414, -0.4081673324108124, 0.35267552733421326, 0.023679444566369057, -0.673072338104248, -0.09198087453842163, -0.6423666477203369, -0.27717283368110657, 0.14104272425174713], [-0.35451585054397583, -0.049916911870241165, -0.005235610995441675, 0.04538066312670708, 0.13066348433494568, 0.31724342703819275, 0.10921236872673035, -0.2673337161540985, 0.1093875989317894, 0.03422922641038895, 0.1017383560538292, 0.14555132389068604, 0.07886610180139542, -0.0062770056538283825, 0.1476309448480606, -0.043672189116477966, 0.013902325183153152, -0.5849942564964294, 0.25303369760513306, 0.01727926731109619, -0.0950268805027008, 0.10071539133787155, -0.025985106825828552, 0.12762399017810822, 0.18703831732273102, -0.22597253322601318, 0.07403737306594849], [-0.11427713185548782, -0.08027685433626175, 0.2678324580192566, 0.12734827399253845, -0.06200901046395302, -0.18141886591911316, 0.15082021057605743, 0.12158919870853424, -0.03104470670223236, 0.123111292719841, 0.1156301349401474, 0.1704622507095337, -0.0842125415802002, -1.294842004776001, -0.13460856676101685, -0.4103550910949707, 0.0699801817536354, 0.3982083201408386, -0.28347864747047424, -0.14830121397972107, -0.8530802130699158, -0.4684464931488037, 0.1852857619524002, 0.2646581828594208, -0.23061808943748474, -0.0949992835521698, -0.2695622742176056], [0.4825369715690613, -0.05298300087451935, 0.1967417448759079, -0.005896916147321463, 0.1318877637386322, -0.3279075622558594, 0.1817401945590973, -0.019513389095664024, 0.10475943237543106, -0.20921263098716736, 0.018928654491901398, 0.10025662183761597, -0.3887600302696228, 0.36859503388404846, 0.01354704238474369, 0.22729825973510742, -0.0527360662817955, 0.1513659954071045, -0.16583582758903503, -0.5238123536109924, 0.2471432238817215, 0.185153067111969, 0.20464123785495758, -0.18523524701595306, -0.1012946292757988, 0.1682969331741333, -0.10161537677049637], [0.016841532662510872, -0.15531358122825623, -0.017564427107572556, -0.013724111951887608, -0.012904524803161621, -0.07252952456474304, -0.3833441436290741, -0.02309742569923401, -0.0016724781598895788, 0.2016880363225937, -0.1858922243118286, 0.09956976771354675, -0.19200092554092407, 0.19311168789863586, -0.26253777742385864, -0.42424580454826355, -0.23501640558242798, 0.4668399691581726, -0.30402618646621704, -0.12440871447324753, 0.26623794436454773, -0.3551461398601532, 0.11548163741827011, 0.3059934973716736, 0.0774463564157486, -0.2141389548778534, 0.26354509592056274], [0.3083847463130951, 0.3369489908218384, 0.11965598165988922, -0.48692238330841064, -0.1514938622713089, 0.3808381259441376, -0.13191628456115723, 0.30556824803352356, 0.03937799856066704, 0.05791817605495453, -0.08468468487262726, 0.10744783282279968, -0.07004345208406448, 0.38048264384269714, -0.1324905902147293, -0.264413982629776, -0.19264380633831024, -0.02119993418455124, -0.3377344012260437, 0.19068631529808044, 0.0930737555027008, 0.1191297397017479, 0.17290334403514862, -0.29126420617103577, -0.16456368565559387, 0.008399342186748981, 0.18206803500652313], [0.28723546862602234, -0.05434607341885567, 0.2900637090206146, 0.12697768211364746, -0.06721945852041245, -0.9605132341384888, -0.43974095582962036, 0.23539729416370392, -0.2665669023990631, -0.020831996574997902, 0.0021157660521566868, 0.2872133255004883, 0.23632358014583588, 0.11119258403778076, -0.6867703199386597, -0.8302176594734192, -0.11144412308931351, -0.40769797563552856, -0.6221441626548767, -0.6907320022583008, -0.6934298276901245, -1.0197570323944092, -0.5124981999397278, -0.16870339214801788, -0.5837664604187012, -0.2536463737487793, -0.45694446563720703], [0.18980121612548828, 0.003336588852107525, 0.0791814774274826, -0.10049247741699219, 0.026706090196967125, -0.30800342559814453, 0.07971276342868805, 0.15819470584392548, -0.021364890038967133, -0.07501249015331268, 0.0384771004319191, 0.2990286648273468, 0.1874452829360962, -0.10935627669095993, 0.001089649274945259, -0.06676390022039413, 0.29034122824668884, 0.01318467315286398, 0.2761438488960266, -0.17658863961696625, 0.6685282588005066, -0.2982003390789032, -0.1517055183649063, -0.2237158566713333, -0.3646432161331177, -0.05485677719116211, 0.22102294862270355], [0.02298947609961033, -0.039814505726099014, 0.19236837327480316, -0.03737597540020943, 0.04180942103266716, -0.0162278451025486, 0.03740573301911354, 0.03152449056506157, -0.010566053912043571, -0.18164485692977905, 0.015303933061659336, -0.02734098769724369, 0.21209025382995605, 0.6299053430557251, 0.11301607638597488, -0.10724097490310669, -0.10238262265920639, 0.22620366513729095, 0.06289105862379074, -0.07666970044374466, 0.2689436972141266, 0.38778582215309143, 0.061868783086538315, 0.23612703382968903, 0.21818406879901886, 0.14723274111747742, 0.048005543649196625], [-0.05618729814887047, 0.17759861052036285, -0.27872657775878906, -0.25992730259895325, -0.22732803225517273, -0.10900545120239258, -0.03868146985769272, 0.05611585080623627, -0.27670708298683167, 0.22264955937862396, -0.11338621377944946, -0.6925553679466248, -0.15699805319309235, 0.7181400060653687, 0.32269614934921265, 0.21181456744670868, -0.0750143751502037, -0.31236523389816284, -0.22088828682899475, 0.12168590724468231, 0.039713066071271896, 0.28070929646492004, 0.2842423915863037, 0.14226733148097992, 0.06611622124910355, 0.23264919221401215, -0.33158957958221436], [0.08559636771678925, 0.025448139756917953, 0.1010870635509491, -0.004938764031976461, 0.5071672201156616, 0.26985979080200195, 0.035658933222293854, -0.007251170929521322, 0.04406411573290825, 0.279429167509079, 0.11114266514778137, -0.22020962834358215, 0.01786039210855961, 0.23389653861522675, -0.016717100515961647, 0.052383627742528915, -0.18849897384643555, -0.13760048151016235, 0.19737152755260468, 0.21551546454429626, -0.31138619780540466, -0.23389020562171936, -0.16327562928199768, 0.06266564130783081, 0.5850731730461121, 0.1621197760105133, 0.654691219329834], [-0.141488179564476, -0.00970003567636013, 0.0762103721499443, 0.06382769346237183, 0.23342201113700867, 0.2966628670692444, 0.04860871285200119, -1.1464656591415405, -0.7017290592193604, -0.34153634309768677, 0.01773819886147976, 0.37945231795310974, -0.15980583429336548, 0.6383646726608276, 0.3521069884300232, -0.3834262490272522, -0.2628368139266968, 0.14907647669315338, -0.17809173464775085, -0.052069589495658875, 0.14097639918327332, 0.37211254239082336, -0.07562331855297089, -0.2084374725818634, 0.04803001135587692, -0.7915287613868713, -0.06612664461135864], [-0.22157441079616547, 0.15526872873306274, -0.7570372223854065, 0.048436541110277176, -0.39781537652015686, 0.24698446691036224, -0.18230025470256805, 0.4670235812664032, -0.22664518654346466, -0.7429227232933044, -0.1447765976190567, -0.0645790845155716, 0.10595449060201645, -0.15116360783576965, 0.0970720499753952, 0.6404464244842529, 0.41807878017425537, 0.5379292368888855, 0.4889567494392395, 0.6150862574577332, 0.16761372983455658, 0.07207845896482468, 0.44064536690711975, 0.39809998869895935, 0.5448771715164185, 0.06985604763031006, 0.8228731751441956], [0.1104661151766777, 0.13025476038455963, 0.35642188787460327, 0.2460300475358963, 0.21552595496177673, -0.06820856779813766, 0.18639853596687317, 0.042477797716856, -0.12770052254199982, -0.20358598232269287, 0.18052247166633606, 0.1271650791168213, 0.08455252647399902, 0.3405153751373291, 0.4861244857311249, 0.15616431832313538, 0.6326695084571838, 0.10227926075458527, 0.5548402070999146, -0.004920780658721924, 0.32174810767173767, 0.10746105760335922, 0.3613458275794983, 0.39051657915115356, 0.11809450387954712, 0.17316851019859314, 0.1824943572282791], [0.3325422704219818, -0.050436779856681824, 0.5111289024353027, -0.42371222376823425, -0.6749029755592346, 0.2609209418296814, -0.25076884031295776, 0.0907333642244339, -0.31614765524864197, 0.3114212155342102, -0.27197936177253723, 0.3068067133426666, 0.16667532920837402, -0.2672717571258545, -0.6422883868217468, 0.11992334574460983, -0.7572113871574402, 0.25626257061958313, 0.0345105417072773, 0.405316561460495, 0.12345291674137115, 0.3279396593570709, -0.14542387425899506, -0.20533490180969238, 0.24818284809589386, 0.265243262052536, -0.20752005279064178], [-0.21967965364456177, 0.35366934537887573, 0.4198601543903351, 0.08808199316263199, -0.8193738460540771, -0.9123982191085815, -0.45238324999809265, 0.3605503439903259, -0.010609768331050873, -0.09015069156885147, -0.1912340670824051, -0.016560878604650497, 0.07918386906385422, -0.10445211082696915, -0.028897413983941078, -0.0714384913444519, 0.3646530508995056, -0.08192599564790726, 0.15573139488697052, 0.3393610119819641, -0.3094868063926697, 0.2178441882133484, -0.6328485012054443, 0.22276152670383453, 0.03981649503111839, -0.4288468658924103, 0.41692492365837097], [-0.338545560836792, 0.02904200367629528, -0.05154360458254814, -0.15469296276569366, -0.24956832826137543, 0.694107174873352, 0.20093820989131927, -0.015895536169409752, 0.18694047629833221, -0.2050207108259201, 0.08949146419763565, 0.34396466612815857, 0.2135676145553589, -0.9798527956008911, -0.10632262378931046, -0.453279048204422, -0.4583599865436554, -0.06474112719297409, -0.6023284792900085, -0.4508729875087738, -0.7694784998893738, -0.07411187887191772, -0.44531989097595215, -0.07486209273338318, -0.06841179728507996, -0.5649963021278381, -0.3127535581588745], [-0.8435091376304626, -0.4765724539756775, 0.20453579723834991, 0.03402615711092949, -0.07448828965425491, 0.38799819350242615, 0.09794773161411285, -0.4221697151660919, -0.13641241192817688, 0.26545679569244385, -0.04424247890710831, 0.33242154121398926, -0.00031271239276975393, -0.5694727897644043, -0.33964648842811584, -0.04513142630457878, -0.05818666145205498, -0.15893924236297607, -0.01972294971346855, 0.0906781256198883, 0.13237957656383514, -0.5799164772033691, -0.5282477140426636, -2.96711950795725e-05, 0.11008816957473755, 0.17474734783172607, -0.39566388726234436], [-0.22035865485668182, 0.13812392950057983, -0.42379745841026306, 0.24310274422168732, 0.30615654587745667, 0.21210446953773499, 0.15253084897994995, -0.5435118675231934, 0.2223033457994461, 0.7857848405838013, 0.023840248584747314, -0.15605759620666504, 0.09061764925718307, -0.5387222766876221, 0.046607568860054016, 0.18647409975528717, 0.04748370125889778, -0.08160660415887833, 0.25788384675979614, 0.6820393204689026, 0.11081687361001968, 0.20205743610858917, -0.15347273647785187, 0.09937029331922531, 0.015077251009643078, -0.16249774396419525, 0.048365432769060135], [0.19731388986110687, 0.05058281496167183, -0.018519433215260506, -0.07124515622854233, -0.05284851789474487, 0.4668913185596466, 0.08814096450805664, 0.09054993838071823, 0.27360662817955017, 0.2629983425140381, 0.036458615213632584, 0.007920308038592339, 0.18838806450366974, -0.028020082041621208, -0.11710274964570999, -0.22752365469932556, -0.2771095037460327, 0.039550188928842545, 0.07901914417743683, -0.41478314995765686, -0.5979709029197693, -0.030086509883403778, -0.10694967210292816, 0.24779802560806274, -0.15018309652805328, -0.21335937082767487, -0.1671588122844696], [0.12409062683582306, -0.3728368282318115, -0.18088184297084808, -0.09045838564634323, -0.043766312301158905, -0.3734649419784546, -0.15003100037574768, -0.25538015365600586, -0.32246336340904236, -0.07517306506633759, 0.013442282564938068, -0.10011699050664902, -0.19754648208618164, 0.07149432599544525, 0.18416687846183777, 0.2823728024959564, 0.2124757021665573, 0.2662828862667084, 0.16912762820720673, -0.07643526792526245, 0.06625711917877197, 0.0641210600733757, 0.3089448809623718, 0.23732393980026245, 0.47388210892677307, 0.01165131013840437, 0.17434318363666534], [-0.011555035598576069, -0.11788385361433029, 0.0712299793958664, -0.20282627642154694, 0.317345529794693, -0.45696011185646057, -0.376258909702301, 0.22317622601985931, -0.003000645898282528, -0.01782587729394436, 0.04156050831079483, -0.08638668805360794, 0.0178263857960701, -0.12022875249385834, -0.16457200050354004, -0.03682732582092285, 0.3244733512401581, -0.005970581900328398, 0.6079109907150269, 0.291451096534729, -0.4957521855831146, -0.03772980347275734, 0.19833463430404663, 0.21413208544254303, 0.119057297706604, 0.7873402833938599, 0.3358866572380066], [0.06268470734357834, -0.04635625332593918, 0.09271425753831863, 0.25088098645210266, -0.004987270105630159, -0.2427321821451187, -0.12276739627122879, 0.10226670652627945, -0.29363253712654114, -0.4795382022857666, -0.1219571903347969, -0.16117556393146515, 0.0245067048817873, 0.6896543502807617, -0.09945567697286606, 0.08137211203575134, 0.06963948160409927, -0.10757622867822647, 0.15613014996051788, 0.09144822508096695, 0.10911320894956589, 0.07517002522945404, 0.3358193039894104, -0.09084081649780273, 0.2353314906358719, 0.00888227578252554, 0.09766549617052078], [-0.3686119019985199, 0.3216109871864319, 0.04847324639558792, -0.46351608633995056, 0.12772159278392792, 0.05746668204665184, -0.03291107714176178, -0.5422218441963196, -0.07714308053255081, -0.034280408173799515, 0.029342131689190865, 0.017041558399796486, 0.16767500340938568, -1.7689963579177856, 0.783658504486084, -0.07137476652860641, 0.5789833068847656, -0.44452962279319763, 0.32075589895248413, -0.5745803117752075, -0.12696336209774017, -0.3365432322025299, -0.22536823153495789, 0.3048137128353119, -0.4121166467666626, 0.22959646582603455, 0.2437383234500885], [-0.1675051897764206, 0.08502338081598282, 0.09489786624908447, 0.16931109130382538, -0.06358858942985535, 0.23930492997169495, -0.11429457366466522, -0.12470782548189163, -0.19236192107200623, -0.010627128183841705, 0.1661108136177063, 0.20415903627872467, 0.1418653428554535, -0.60331130027771, -0.7227405309677124, -0.6326698064804077, -0.4343775808811188, -0.2558353841304779, -0.6683456897735596, -0.5020942091941833, -0.6900314688682556, -0.5691819787025452, -0.1682233363389969, -0.34235888719558716, -0.5495345592498779, -0.882112979888916, -0.29982560873031616], [0.1707332879304886, 0.06931611150503159, 0.13552823662757874, 0.12373325228691101, -0.20130275189876556, -0.0687449648976326, -0.12500165402889252, 0.14707911014556885, 0.15992772579193115, -0.06343241780996323, -0.048581089824438095, 0.07382068037986755, 0.1726289689540863, 0.4374786615371704, 0.2619861364364624, 0.1156516745686531, 0.2775096595287323, 0.24490001797676086, 0.16167309880256653, 0.22538164258003235, 0.060083165764808655, -0.11443374305963516, 0.4279201924800873, 0.30947867035865784, 0.06181458383798599, -0.05040959268808365, 0.24860136210918427], [0.07044229656457901, -0.1616262048482895, 0.018197767436504364, 0.00610977690666914, 0.011290660127997398, -0.24062487483024597, 0.14622706174850464, 0.08099640905857086, 0.12737460434436798, -0.06844134628772736, 0.19450300931930542, 0.1166238933801651, -0.07011881470680237, 0.43307816982269287, 0.19282598793506622, 0.06767211854457855, 0.04535093903541565, 0.09755642712116241, 0.05941043421626091, 0.26943859457969666, 0.1439528912305832, 0.15838217735290527, 0.01998082362115383, 0.09053037315607071, 0.33803921937942505, 0.11719630658626556, 0.07157870382070541], [-0.09060228615999222, 0.3381862938404083, 0.27057525515556335, 0.13532942533493042, 0.16500650346279144, 0.2734869420528412, -0.1124827042222023, -0.21843808889389038, -0.1798405796289444, 0.08711855858564377, 0.16941596567630768, 0.2692464292049408, -0.013127763755619526, -0.02362002246081829, -0.5171249508857727, -0.3522767424583435, -0.5654813051223755, -0.10304693877696991, -0.2577296197414398, 0.2875157594680786, 0.0780264213681221, -0.2574564218521118, 0.14953212440013885, -0.44800183176994324, -0.007802438922226429, -0.7454147338867188, -0.30274641513824463], [-1.4432311058044434, -0.7212495803833008, 0.16247433423995972, 0.35214322805404663, 0.2481800764799118, -0.22100715339183807, -0.2822621762752533, 0.10130811482667923, 0.26421985030174255, 0.10690212994813919, 0.11152030527591705, 0.3145940899848938, -0.08440639078617096, -0.814595639705658, 0.49741867184638977, 0.3160620927810669, 0.022081812843680382, 0.3084724247455597, 0.06368634849786758, -0.9468492269515991, -0.0018308163853362203, 0.29129093885421753, -0.44985923171043396, -0.5842645764350891, 0.7252170443534851, -0.5673463344573975, -0.6400770545005798], [0.3872573971748352, 0.2860729396343231, -0.30616074800491333, 0.26575472950935364, 0.31132471561431885, -0.20716960728168488, -0.22643347084522247, -0.04306646063923836, -0.34784945845603943, -0.5816130638122559, 0.13182863593101501, -0.34513333439826965, 0.026728566735982895, 0.9010838866233826, 0.11782566457986832, 0.040234994143247604, -0.3230305016040802, -0.31621405482292175, -0.4846806228160858, -0.06422477960586548, 0.6537438631057739, -0.11231379956007004, -0.2862167954444885, -0.1815917193889618, -0.17508089542388916, -0.28589606285095215, -0.023373086005449295], [-0.32455289363861084, -0.005955803208053112, 0.06321895122528076, 0.38895177841186523, -0.08463671803474426, 0.10332738608121872, 0.16965392231941223, -0.1550213247537613, 0.32360056042671204, -0.06659966707229614, 0.11704812198877335, -0.40298810601234436, -0.005179932806640863, -0.03691593557596207, -0.24607063829898834, 0.09202735871076584, -0.09974678605794907, 0.16113653779029846, 0.25410032272338867, 0.023776745423674583, 0.14706960320472717, -0.33233022689819336, -0.03321661427617073, -0.03561607375741005, -0.018891017884016037, 0.1258288025856018, 0.3564795255661011], [0.022198526188731194, 0.006061272695660591, -0.1660633683204651, -0.18115150928497314, -0.25821539759635925, -0.006551187019795179, -0.2115904837846756, 0.21553677320480347, -0.015916459262371063, 0.134191632270813, 0.17477846145629883, 0.19326235353946686, -0.1838337630033493, 0.34608781337738037, 0.2292208969593048, 0.16587655246257782, 0.07472798228263855, 0.11472223699092865, 0.1420959085226059, 0.2398119568824768, 0.22464653849601746, 0.1019396111369133, 0.05228770151734352, 0.12975648045539856, 0.26237156987190247, 0.37034872174263, -0.023695621639490128], [-0.269416868686676, 0.04892657697200775, -0.30836158990859985, -0.008583785966038704, -0.30614331364631653, -0.5205402374267578, -0.08805127441883087, -0.08347612619400024, 0.37671521306037903, -0.12668129801750183, -0.32629016041755676, -0.07616490870714188, -0.041241951286792755, 0.2630090117454529, -0.30346691608428955, -0.02525072917342186, 0.24216526746749878, -0.18883845210075378, -0.4231507182121277, -0.07176124304533005, 0.030699701979756355, -0.40567827224731445, 0.123746357858181, -0.018544241786003113, 0.06733375042676926, 0.19136306643486023, -0.1681337207555771], [0.05290316045284271, -0.24154254794120789, -0.4362366795539856, -0.044099558144807816, -0.15572012960910797, -0.6184357404708862, 0.0666082575917244, 0.11003708839416504, -0.46405231952667236, -0.07584307342767715, -0.3383689820766449, -0.041904062032699585, 0.015018964186310768, 0.15875497460365295, -0.24454864859580994, 0.2955363988876343, 0.0790863186120987, 0.4398874342441559, 0.09988671541213989, -0.5165601372718811, -0.4464150071144104, -0.17710234224796295, 0.6606044173240662, 0.2612254023551941, -0.06893362104892731, 0.05716155096888542, -0.6665561199188232], [-0.04562341421842575, 0.25104644894599915, -1.0412532091140747, -0.9875105023384094, -0.5228955149650574, 0.29808199405670166, -0.0520707406103611, -0.5942608714103699, -0.780368983745575, 0.37858858704566956, -0.27404075860977173, -0.09080760180950165, -0.03307098150253296, -0.8741170763969421, -0.13499972224235535, -0.21185706555843353, -0.02165313810110092, 0.7602152228355408, -0.2888790965080261, -0.12249409407377243, -0.5306866765022278, -0.42814329266548157, 0.251007080078125, -0.1580270230770111, -0.3935334086418152, 0.5778459906578064, 0.16250036656856537], [-0.291098028421402, 0.4440152049064636, -0.2825351357460022, 0.5730965733528137, -0.13998889923095703, 0.30583858489990234, 0.012845166027545929, 0.17374303936958313, -0.2770124077796936, -0.1921444982290268, 0.14418363571166992, -0.15124328434467316, -0.11905839294195175, 0.3037308156490326, 0.005372159648686647, 0.17737621068954468, -0.19986984133720398, 0.5650776624679565, 0.07784639298915863, -0.007520435377955437, 0.6209737062454224, 0.5314216017723083, -0.17059794068336487, -0.2852124869823456, -0.17794488370418549, 0.13362129032611847, 0.24136614799499512], [0.22845371067523956, -0.22547754645347595, -0.6550226211547852, 0.4913915693759918, -0.531306803226471, 0.3793034255504608, 0.16658005118370056, -0.3426656424999237, -0.16195037961006165, -0.29225921630859375, -0.05927553027868271, -0.139529287815094, 0.08782066404819489, -0.03532526269555092, 0.008431879803538322, 0.13595546782016754, 0.13199879229068756, -0.1920890212059021, 0.4984346628189087, -0.4467940032482147, 0.13688530027866364, -0.05797412618994713, -0.20927639305591583, 0.011292955838143826, -0.3272167146205902, 0.3053045868873596, -0.011201845481991768], [-0.425824373960495, -0.006249979604035616, -0.12227892875671387, 0.23579126596450806, 0.27619367837905884, -0.3004925549030304, 0.13051748275756836, -0.01666625775396824, 0.0054927715100348, 0.10112019628286362, 0.12015757709741592, -0.09026364982128143, -0.21355584263801575, -0.004375495947897434, 0.08102653175592422, 0.3732365071773529, 0.6315058469772339, 0.09421694278717041, 0.5037862062454224, -0.27749621868133545, 0.7426550984382629, 0.04762565717101097, 0.2120417356491089, 0.06769497692584991, -0.23934699594974518, 0.5213236808776855, -0.01015256904065609], [0.1528470367193222, -0.15532658994197845, 0.05350126326084137, 0.14598922431468964, -0.11765161901712418, -0.15716774761676788, -0.1589200496673584, 0.1782032698392868, 0.16174109280109406, -0.019915059208869934, -0.17241689562797546, -0.03710968792438507, -0.03882685303688049, -0.14993849396705627, -0.09807495772838593, -0.12507522106170654, 0.160317063331604, 0.07507453858852386, 0.15310148894786835, 0.16019843518733978, -0.019997045397758484, -0.08505097031593323, 0.08564724028110504, 0.07618962228298187, 0.07932926714420319, 0.1317816525697708, -0.12957286834716797], [0.0677543357014656, 0.24253319203853607, 0.04131429269909859, -0.39408737421035767, 0.03319154679775238, -0.40224480628967285, 0.2340163290500641, 0.14607833325862885, 0.008491083048284054, 0.2863207161426544, -0.04509962722659111, 0.3616897463798523, 0.3301069736480713, -0.3202809989452362, -0.7949095964431763, -0.009887266904115677, -0.11719748377799988, 0.39703622460365295, -0.3771795630455017, -0.01927432231605053, -0.16109797358512878, -0.41213762760162354, -0.10989943146705627, -0.47110363841056824, 0.5371840596199036, -0.6549690365791321, -0.0323985330760479], [-0.20712198317050934, 0.31845623254776, 0.5298853516578674, -0.0156825240701437, -0.530934751033783, 0.39413559436798096, -0.14072643220424652, -1.0638052225112915, -0.11844302713871002, 0.1296127736568451, -0.08651984483003616, -0.21197716891765594, -0.04674862325191498, -0.18796506524085999, 0.1817997545003891, -0.2924855947494507, 0.5880167484283447, -0.3671283423900604, 0.36648446321487427, 0.3404541313648224, 0.2549540400505066, 0.18663400411605835, 0.21912376582622528, 0.026186469942331314, -0.2097780555486679, -0.08300718665122986, 0.5655723810195923], [0.20966318249702454, -0.29944226145744324, 0.04657295346260071, 0.20774348080158234, 0.29779908061027527, 0.1976194530725479, -0.1916911005973816, -0.09884751588106155, -0.6250677108764648, 0.13388510048389435, -0.018275927752256393, -0.2525886297225952, -0.3477889895439148, 0.5636688470840454, -0.015129625797271729, 0.10672619193792343, -0.240334153175354, -0.2284228503704071, -0.920386552810669, 0.23028789460659027, -0.09272313117980957, -0.35166558623313904, 0.357408344745636, -0.06735154241323471, 0.0024656481109559536, -0.11879564076662064, -0.45653215050697327], [-0.30469202995300293, 0.20016512274742126, -0.14576314389705658, -0.08494638651609421, -0.0384497232735157, 0.3678431510925293, -0.10233640670776367, -0.10984861105680466, -0.0268583744764328, 0.2977459132671356, -0.07010839879512787, 0.21598941087722778, 0.20284217596054077, 0.17222774028778076, -0.2591664791107178, 0.6265295743942261, -0.0342479832470417, -0.02131444402039051, -0.08377166837453842, 0.2972669005393982, 0.5250260233879089, 0.20837385952472687, 0.22929935157299042, 0.10571940243244171, -0.13827954232692719, 0.2170208841562271, 0.24060754477977753], [-0.0069299135357141495, -0.1500166803598404, 0.24878831207752228, 0.38971659541130066, 0.015016417019069195, -0.2731024920940399, -0.1867237091064453, 0.19092318415641785, -0.00421524653211236, -0.7587529420852661, -0.03764741122722626, -0.18079590797424316, 0.14005017280578613, 0.3047827184200287, 0.5224395394325256, 0.15986832976341248, -0.22633418440818787, 0.601170539855957, -0.06937366724014282, 0.15432581305503845, 0.46239349246025085, -0.17061442136764526, 0.10234901309013367, 0.11370453238487244, 0.27553752064704895, -0.05283752456307411, 0.30117204785346985], [0.1803048700094223, 0.19358780980110168, 0.23765558004379272, -0.43779847025871277, -0.2811376452445984, -0.6508468389511108, -0.05399339273571968, 0.22604180872440338, -0.1787051409482956, -0.7070938944816589, -0.17929986119270325, -0.10103699564933777, -0.17074333131313324, -0.19741886854171753, 0.1399148851633072, -0.11387518048286438, -0.026199590414762497, -0.14419938623905182, 0.5342149138450623, -0.4805949032306671, 0.059050749987363815, 0.41969701647758484, -0.23743298649787903, 0.04607435315847397, 0.04334487393498421, 0.3801887631416321, -0.6371034383773804], [-0.02644716016948223, -0.43750810623168945, -0.21960408985614777, -0.23491758108139038, -0.3837178349494934, 0.19866473972797394, -0.016501374542713165, -0.24858568608760834, -0.029987521469593048, 0.23519931733608246, -0.0024621335323899984, 0.2075423151254654, -0.17424482107162476, 0.20573844015598297, 0.28281548619270325, 0.28812918066978455, 0.2391093224287033, -0.35998106002807617, 0.246712788939476, 0.12219475954771042, 0.05448324978351593, 0.03609280660748482, 0.16060015559196472, 0.05101475492119789, 0.09529789537191391, 0.11593528091907501, 0.17511984705924988], [-0.21435648202896118, 0.15700343251228333, -0.10084787756204605, -0.1035022884607315, -0.1962496042251587, 0.1732061356306076, 0.28721746802330017, 0.16141299903392792, -0.05449005961418152, -0.15284012258052826, 0.03874446451663971, -0.03568582236766815, -0.008585292845964432, -0.48146992921829224, 0.31079915165901184, 0.2995705008506775, 0.23613464832305908, -0.2745937407016754, 0.06123055890202522, -0.23200774192810059, 0.27209287881851196, 0.27824482321739197, -0.20902709662914276, -0.04222068190574646, -0.12505348026752472, -0.38345852494239807, 0.03509599342942238], [-0.20541377365589142, -0.9434395432472229, -0.5278719663619995, 0.28555822372436523, -0.4023923873901367, 0.4037828743457794, -0.026447907090187073, -0.06539672613143921, 0.20439210534095764, -0.4688168168067932, -0.04703330621123314, -0.03364644572138786, 0.16947084665298462, -1.1382516622543335, -0.1765669584274292, -0.4124753773212433, 0.4042978286743164, -0.38941529393196106, 0.14027369022369385, 0.14232930541038513, -0.44989001750946045, 0.00012026793410768732, -0.13569368422031403, 0.012151296250522137, -0.1106766015291214, 0.16441044211387634, 0.03912365064024925], [-0.21336126327514648, 0.3438658118247986, -0.4006703794002533, 0.08379713445901871, 0.3978753685951233, -0.29708296060562134, 0.11684701591730118, -0.3183054029941559, -0.13226447999477386, 0.4781995713710785, -0.03472691774368286, -0.49848997592926025, 0.05193011090159416, 0.40766361355781555, 0.047782815992832184, 0.1416255086660385, -0.12799109518527985, -0.28686845302581787, 0.6667566299438477, 0.18168798089027405, 0.09823156148195267, 0.11912037432193756, 0.049379970878362656, -0.35168546438217163, -0.16644226014614105, 0.501114547252655, 0.36959612369537354], [-0.20975999534130096, 0.07155110687017441, 0.6307910680770874, -0.4874410629272461, -0.5502960085868835, -0.9779560565948486, 0.21095404028892517, 0.42788612842559814, -0.4080071449279785, -0.7306455969810486, -0.17103266716003418, 0.20164276659488678, 0.28763923048973083, -0.21164456009864807, 0.38632190227508545, -0.54522305727005, 0.015478293411433697, 0.3433159291744232, -0.15113164484500885, 0.05522966384887695, 0.5762395262718201, 0.3088970184326172, -0.06390144675970078, -0.41178399324417114, -0.004209984093904495, 0.1028752252459526, 0.08892833441495895], [-0.14753414690494537, 0.3725506663322449, -0.20293040573596954, 0.573676586151123, 0.07977870851755142, 0.14363817870616913, 0.127210795879364, -0.08196283876895905, -0.40340501070022583, 0.21483971178531647, 0.019825298339128494, 0.07911623269319534, 0.25848889350891113, 0.410841703414917, -0.3593064546585083, 0.14335884153842926, -0.1447845995426178, -0.5271496772766113, 0.34622782468795776, -0.09943781793117523, 0.3935595750808716, -0.3184277415275574, 0.2439376562833786, -0.07684256136417389, -0.22028088569641113, 0.0030148429796099663, -0.033926039934158325], [-0.025106336921453476, 0.09907183051109314, 0.13321416079998016, 0.10843604803085327, 0.01543138362467289, 0.038173168897628784, -0.0956231951713562, 0.27120375633239746, 0.05681270360946655, 0.31230828166007996, 0.13786940276622772, 0.028944674879312515, 0.05184905230998993, -0.8998735547065735, 0.03148536756634712, -0.26327279210090637, -0.1873115748167038, -0.22020243108272552, -0.9943972229957581, -0.00622436311095953, -0.5529109239578247, -0.3555101752281189, -0.4038182497024536, 0.0638120248913765, 0.08593976497650146, -0.9628013372421265, -0.17653103172779083], [-0.7911425232887268, 0.042715027928352356, -0.2940208613872528, -0.02015676535665989, -0.7935880422592163, 0.7860849499702454, 0.3407646119594574, 0.16353657841682434, 0.5352977514266968, -0.5849670171737671, -0.04595788195729256, 0.18567171692848206, 0.24117586016654968, 0.22882135212421417, 0.23620495200157166, 0.1432875096797943, -0.033211786299943924, 0.15065418183803558, 0.22979217767715454, 0.12870247662067413, 0.21870899200439453, -0.25681713223457336, 0.36683428287506104, -0.2494819462299347, 0.41921237111091614, 0.23221085965633392, 0.3159654140472412], [-0.20509642362594604, 0.5746508240699768, 0.4081968367099762, 0.7715229988098145, 0.2496229112148285, 0.004473587963730097, -0.2857699990272522, -0.646923303604126, -0.3149875998497009, -1.490439534187317, 0.04048702120780945, -0.10422007739543915, 0.1033392921090126, 0.49899768829345703, -0.20056137442588806, 0.01272231712937355, 0.1489391028881073, 0.21332047879695892, 0.05902200564742088, -0.2360018789768219, 0.2763647735118866, 0.04362595081329346, -0.371211439371109, 0.3009707033634186, 0.10157619416713715, 0.25363534688949585, 0.03357202559709549], [0.31086352467536926, 0.5583882331848145, -0.019995305687189102, 0.2910676598548889, 0.28185757994651794, -0.08167281746864319, 0.0013745813630521297, -0.9718335866928101, -0.1466681808233261, -0.7506158947944641, -0.019541405141353607, 0.24676667153835297, 0.16899028420448303, 0.7436918020248413, 0.23621229827404022, -0.26070913672447205, 0.33823585510253906, -0.01178989838808775, -0.0798148512840271, -0.4034430980682373, 0.7197086811065674, 0.010630005039274693, 0.384263813495636, 0.12192190438508987, 0.08473309129476547, -0.10339289903640747, -0.1276526302099228], [-0.020154401659965515, 0.011289924383163452, -0.17973549664020538, -0.13382264971733093, -0.15725985169410706, -0.11339318007230759, 0.1292032152414322, -0.044612348079681396, -0.17052090167999268, 0.18896810710430145, -0.1522347629070282, -0.10595180839300156, -0.14336784183979034, 0.16812755167484283, -0.15744011104106903, -0.015536442399024963, -0.014440372586250305, 0.010941997170448303, 0.10330261290073395, -0.01100429892539978, -0.09502672404050827, -0.1324954777956009, 0.024234503507614136, -0.03049662709236145, -0.0013517588376998901, -0.03705047070980072, -0.1893531084060669], [-0.03184442222118378, 0.02328566275537014, -0.16253188252449036, -0.006084521766752005, -0.18277893960475922, -0.16603446006774902, -0.03610853850841522, 0.230981707572937, -0.07163826376199722, 0.08197338134050369, 0.216953307390213, 0.0708526000380516, 0.1658678501844406, -0.4336158037185669, -0.5044181942939758, -0.4613769054412842, -0.04109567403793335, 0.20730359852313995, -0.7284815311431885, -0.08673152327537537, -0.6165308356285095, -0.7583233714103699, -0.8450034260749817, -0.20763489603996277, 0.16491487622261047, 0.35009095072746277, -0.11873742938041687], [0.11416775733232498, 0.16567786037921906, 0.5044230222702026, -0.17792771756649017, -0.054441459476947784, 0.07536585628986359, 0.3829808533191681, 0.19930113852024078, -0.3359009027481079, -0.5021445155143738, -0.08035437017679214, -0.5400655269622803, -0.30452898144721985, -0.02878469042479992, -0.0015352307818830013, 0.16929367184638977, -0.2118815779685974, 0.9338729381561279, -0.7758759260177612, -0.2778809070587158, 0.04971672594547272, 0.2035946249961853, 0.11506397277116776, -0.2152981013059616, 0.2555438280105591, -0.42020007967948914, -0.39651399850845337], [-0.4327579438686371, 0.14278599619865417, -0.666098415851593, -0.3218344449996948, 0.10428754985332489, -0.08595269918441772, 0.2848860025405884, -0.5056841969490051, 0.23834313452243805, 0.04708518460392952, -0.042447350919246674, -0.4721810817718506, 0.20936442911624908, 1.1879311800003052, 0.2499251812696457, 0.0932549312710762, 0.012769311666488647, 0.04313979670405388, -0.05893564969301224, -0.12360876798629761, 0.7529383897781372, -0.21990810334682465, 0.23788918554782867, 0.31685423851013184, 0.3054698407649994, 0.3317263126373291, 0.18269459903240204], [-0.009610384702682495, -0.1806846708059311, 0.15286289155483246, 0.12272222340106964, -0.14170575141906738, 0.0484338253736496, -0.13335350155830383, -0.09941405057907104, 0.08539865911006927, -0.10348496586084366, -0.1705545336008072, 0.012757673859596252, 0.054028093814849854, 0.12769345939159393, 0.18493972718715668, 0.055082619190216064, 0.17885209619998932, -0.011990025639533997, -0.05029594898223877, -0.14798325300216675, -0.03868114948272705, -0.029988259077072144, 0.13059495389461517, -0.0505327433347702, 0.046264469623565674, -0.1155620589852333, -0.025682762265205383], [0.49501317739486694, -0.044152095913887024, -0.3207820951938629, 0.2173452079296112, 0.21103987097740173, -0.14819830656051636, 0.08270391821861267, -0.10471653938293457, -0.7337924242019653, -0.9929776787757874, 0.03016328252851963, -0.1374625414609909, 0.03725545480847359, 0.001918691792525351, -0.14480026066303253, 0.1492016762495041, -0.2335686981678009, 0.0979597195982933, 0.07153747230768204, 0.10056740045547485, -0.33725184202194214, 0.22196140885353088, -0.08566524088382721, 0.007361729629337788, 0.10948534309864044, -0.12778590619564056, -0.09904354810714722], [0.02441459894180298, 0.4141359031200409, -0.753340482711792, -0.1274329274892807, -0.4389057159423828, 0.340932697057724, 0.11230340600013733, 0.23893219232559204, -0.3500015437602997, -0.6868804097175598, -0.084939144551754, 0.3635978698730469, -0.0317070409655571, 0.5284503102302551, -0.31777048110961914, 0.12562917172908783, -0.11058192700147629, -0.054256245493888855, 0.12871766090393066, 0.014965609647333622, 0.18664008378982544, 0.006255273707211018, 0.2090689241886139, -0.15232379734516144, 0.17006810009479523, 0.02826423943042755, 0.060696471482515335], [0.2806997001171112, -0.2636669874191284, 0.03612189367413521, 0.19426089525222778, -0.002108011394739151, -0.21394118666648865, 0.08308715373277664, -0.08055377751588821, 0.14297950267791748, -0.16830112040042877, -0.13277138769626617, -0.18494823575019836, -0.18192818760871887, -0.36990606784820557, 0.29048773646354675, -0.2479979544878006, 0.33877041935920715, -0.604956328868866, -0.0021723893005400896, 0.42764800786972046, 0.24467210471630096, 0.31880250573158264, -0.002516689244657755, -0.4163665771484375, -0.2973639965057373, -0.26092809438705444, 0.05854591727256775], [-0.12500117719173431, -0.051427196711301804, 0.0657932460308075, -0.040500227361917496, -0.103269062936306, 0.059765852987766266, 0.05284520611166954, 0.14473983645439148, -0.11690812557935715, 0.09132560342550278, 0.07772424817085266, -0.04467608779668808, 0.05274360626935959, -0.23857322335243225, 0.22291727364063263, -0.16259227693080902, 0.28217148780822754, 0.2327808290719986, -0.03348434343934059, 0.04863697662949562, -0.09540966898202896, -0.04355158284306526, -0.3335961401462555, 0.33446964621543884, 0.4651837944984436, -0.4249502420425415, -0.20212726294994354], [-0.7399629950523376, 0.28135931491851807, -0.2893124222755432, -0.14657603204250336, 0.19932831823825836, -0.2306698113679886, -0.9888083934783936, 0.3137446939945221, 0.20437194406986237, 0.2865663468837738, -0.10184148699045181, -0.06887229532003403, -0.09587100893259048, -0.4252927005290985, -0.08611278235912323, -0.025553729385137558, 0.7494666576385498, 0.24291594326496124, -0.3042241334915161, -0.3153808116912842, -0.2882656753063202, -0.7247515916824341, -0.07042589783668518, 0.11823908984661102, 0.07614504545927048, 0.5125434398651123, -0.22200098633766174], [0.3791517913341522, 0.15003277361392975, -0.03473573178052902, 0.10670102387666702, 0.3341129422187805, 0.17277927696704865, -0.42400631308555603, -0.5605006217956543, -0.06121503934264183, 0.2543834447860718, -0.05691218376159668, -0.12237244099378586, -0.37566226720809937, 0.6167805194854736, -0.056380368769168854, -0.1890299916267395, 0.12774133682250977, -0.29936620593070984, 0.332893431186676, -0.4903542697429657, 0.3136615753173828, 0.31165197491645813, 0.007621359080076218, 0.07674594968557358, 0.15617413818836212, -0.04556412249803543, -0.2640666663646698], [0.007384770084172487, -0.4180101752281189, -0.08103920519351959, -0.020892301574349403, -0.0569797083735466, -0.331426203250885, -0.19125156104564667, -0.1061212345957756, -0.04115291312336922, -0.18489621579647064, -0.032346487045288086, 0.038483764976263046, -0.1630728393793106, 0.1695319563150406, 0.2630678713321686, 0.2634287178516388, 0.02839578501880169, 0.40410906076431274, 0.14594081044197083, 0.07718606293201447, 0.12232489138841629, 0.13249541819095612, 0.142044335603714, 0.29619300365448, 0.2948417365550995, 0.06932009011507034, 0.08228039741516113], [0.22844034433364868, -0.36143526434898376, 0.4771534502506256, -0.35938242077827454, -0.10356735438108444, -0.6136659383773804, -0.228643536567688, -0.20279566943645477, -0.05820872634649277, 0.11033380031585693, 0.12042922526597977, -0.12211684882640839, -0.04847703501582146, -0.2394227534532547, 0.342515230178833, 0.17882157862186432, 0.35824453830718994, -0.16004808247089386, -0.25617772340774536, 0.3481051027774811, -0.008197139948606491, -0.005907332990318537, 0.17691850662231445, -0.30562329292297363, 0.22064238786697388, 0.4833982586860657, -0.5706746578216553], [-0.14409582316875458, -0.006485809572041035, -0.5611740350723267, -0.05241820961236954, 0.6894460916519165, 0.2583707571029663, -0.3124849498271942, -0.7054471969604492, 0.1550048291683197, 0.25389084219932556, -0.02892083115875721, -0.10250157117843628, -0.2151888757944107, -0.25823479890823364, -0.37948161363601685, -0.08225878328084946, 0.2820691168308258, 0.011321098543703556, 0.14911141991615295, -0.007489764131605625, 0.2823171615600586, -0.01700267754495144, 0.42564165592193604, 0.022826192900538445, 0.14393658936023712, -0.3447318375110626, 0.13191229104995728], [-0.12092707306146622, 0.1761230081319809, -0.17789913713932037, -0.12058333307504654, 0.03723621368408203, 0.07794328033924103, 0.09688813984394073, -0.12473893165588379, -0.0965064987540245, -0.12242847681045532, -0.07336214929819107, 0.036036550998687744, -0.19024622440338135, -0.07137396186590195, -0.05140039324760437, -0.007687091827392578, -0.05652369558811188, -0.07243981957435608, 0.022706300020217896, 0.07100071012973785, -0.10560286790132523, 0.1694529503583908, 0.15852896869182587, 0.1664821356534958, -0.08754096180200577, 0.15852691233158112, -0.06428447365760803], [0.07049229741096497, -0.0609925352036953, 0.47045937180519104, -0.05659874156117439, -0.17552009224891663, -0.3391009569168091, -0.03768486902117729, 0.17213505506515503, -0.030300479382276535, -0.0017112626228481531, 0.12156099826097488, -0.07418297231197357, 0.1253497302532196, -0.3234187662601471, -0.03564793989062309, -0.13442720472812653, 0.09075117111206055, 0.12106286734342575, -0.4600593149662018, -0.1632523238658905, -0.2560194432735443, -0.30969804525375366, -0.21276746690273285, 0.18578913807868958, -0.045586053282022476, -0.38502487540245056, -0.05202091857790947], [-0.5628693699836731, -0.7261199355125427, -0.7259942293167114, -0.08228754997253418, -0.8721052408218384, 0.4148629903793335, -0.07494504004716873, 0.0771738663315773, -0.1540614366531372, -0.1543787568807602, -0.07129532843828201, -0.10379356890916824, -0.25620442628860474, 0.12739312648773193, 0.08879043906927109, -0.1641729325056076, -0.26884427666664124, 0.6057742834091187, -0.3936039209365845, 0.3018902838230133, -0.07122417539358139, 0.025311391800642014, 0.14537250995635986, 0.245529443025589, -0.049977466464042664, -0.26098841428756714, 0.1343994289636612], [0.04336949437856674, 0.29645735025405884, -0.09061186760663986, 0.12112492322921753, -0.03759156912565231, -0.0035540719982236624, -0.46139416098594666, -0.4342899024486542, -0.7778230309486389, -0.0650702640414238, -0.06867939233779907, 0.40929746627807617, -0.3575444221496582, 0.011540654115378857, 0.2863561809062958, -0.465523898601532, -0.008454483933746815, 0.15469245612621307, -0.22003886103630066, -0.04823144152760506, -0.5134062767028809, 